-0.5615301,-0.153144,-0.8330078,0.4190931,0.3363106,0.7046454,-0.4509119,-0.09416568,-0.601644,-0.3271259,-0.8802199,0.4869282,0.4202073,-0.7304807,0.7362852,-0.1232423,0.1008846,-0.6743598,0.6172991,-0.481737,-0.740643,-0.02452004,0.2876639,0.6723864,-0.372727,-0.05353677,-0.1191486,0.998697,-0.722733,-0.3464881,0.0808717,-0.6269867,-0.6498666,-0.7107632,0.1028947,-0.05133235,-0.7476525,0.8983085,-0.4218396,0.4679666,-0.5011055,-0.1235551,-0.08285987,0.3988535,-0.7574782,-0.1422216,-0.1164798,0.7248151,0.5871801,-0.4168676,0.2171046,-0.07644427,-0.7796903,-0.6371002,-0.6252608,-0.4872423,0.6317449,0.4782264,-0.6180384,0.3317051,0.3721707,-0.5232642,0.4618561,0.9198003,-0.5560694,-0.4794832,-0.00635016,0.05965483,0.6646864,0.6538773,-0.8831866,-0.1648723,0.02528584,-0.6546571,-0.2133211,-0.6676059,0.1435283,-0.333907,-0.1717042,0.4129665,0.9808547,-0.2379056,-0.7699947,0.7574301,0.3035905,0.8125961,-0.8329747,-0.606539,0.5520048,0.4942064,0.3098099,-0.8567009,0.7562261,-0.02260149,-0.8376243,0.03134549,0.7132342,-0.008993745,0.1464816,-0.921098,0.1541172,-0.003684163,-0.7792523,-0.4991299,-0.4291645,0.8046405,0.2897952,-0.6974196,0.5260465,-0.2025031,0.9410815,0.5751312,-0.1681105,0.9895036,0.9167447,0.5375838,0.428396,-0.5177326,-0.4636081,-0.3391668,0.3474665,0.9320858,0.07685602,0.1573011,-0.5702589,0.7762625,0.8670216,-0.9227469,0.07701719,0.5246546,0.8728433,0.3922422,-0.8745542,-0.9927342,0.459126,0.1421112,-0.6511083,0.8559532,0.1082605,-0.7632916,0.5094473,-0.6134946,0.456604,-0.5058308,0.8491552,0.3691185,-0.1679,-0.1997963,-0.8249021,0.8833175,0.8032029,0.6646812,-0.6970172,-0.09449327,-0.7633493,-0.5465834,-0.5494258,0.2110482,0.2541797,0.6851227,0.9658504,-0.1790644,0.6184864,-0.8334169,0.9920158,0.4478381,-0.4481186,0.6214755,0.2622151,-0.02346289,-0.09810221,0.8786564,0.5698469,-0.3828756,0.2530341,0.5629838,-0.02868998,-0.825161,-0.9546332,-0.00276792,-0.01560271,-0.9404931,0.2408587,0.8766637,-0.2287301,-0.1272608,0.8825772,0.2307774,-0.1454352,-0.08227003,0.5612371,0.5724409,0.300462,-0.7824852,-0.08798206,-0.5326929,0.9049928,-0.09597051,0.3726771,0.008303046,-0.7059445,0.455231,-0.8778331,-0.1595491,0.820224,-0.5622237,0.8810997,-0.0493058,0.2866857,0.5995963,0.01860607,0.624923,-0.0490073,0.144678,-0.6157136,0.7668002,0.1027042,-0.02890241,0.4574873,-0.07562459,0.3173161,-0.1442879,0.6202848,0.9419897,0.3222599,-0.3510958,0.2450742,0.03396285,-0.5988128,0.02375114,-0.5411911,-0.9331412,0.529489,-0.7409363,0.7849638,-0.3266991,-0.809845,0.8300331,-0.2513391,0.4858415,0.7759929,-0.9147992,-0.4866742,0.3597152,0.3499308,-0.03972161,-0.2268873,0.00859344,-0.9528327,-0.9694932,0.7037001,0.1000057,0.2047919,0.9681726,-0.5695088,0.8814907,-0.8119996,-0.7672648,0.07529318,0.4881136,0.9695992,-0.5791912,0.8141754,0.7957416,-0.7546177,0.4680426,0.7543368,0.2859032,0.03160036,-0.2533878,-0.5745702,0.995074,0.8865364,-0.970437,-0.9075243,-0.0376097,0.003639817,0.2734733,0.262006,0.7759542,-0.60096,-0.6159348,0.189082,-0.4382182,-0.5728021,-0.6431084,0.5719948,-0.6851914,0.7254658,0.1093775,-0.6045663,-0.2060043,-0.132579,-0.4132861,-0.8208075,-0.2030159,-0.3803633,-0.5131629,0.5825465,0.3929892,-0.3271989,0.3252509,-0.2980348,-0.978101,-0.2369424,-0.4606575,0.2774236,0.4808099,-0.6261044,-0.6816561,0.6360488,0.9564393,0.9606481,0.8145757,-0.6813469,-0.2351953,-0.8952265,0.4059222,0.7849104,-0.999896,-0.2943982,0.6573632,0.965785,0.736233,-0.3377174,-0.1970724,0.788496,-0.06391513,0.3369725,-0.8824768,0.8681409,-0.4287301,0.8972914,-0.1599985,0.7291961,0.2735729,0.1115836,0.5461807,0.4108856,-0.841079,0.2202374,0.381592,0.239674,0.7475264,0.8007214,0.2015156,0.521271,0.7116253,0.1416601,0.9779606,-0.6826394,0.7948098,0.59761,-0.5026553,0.9980812,-0.7423038,-0.5292799,0.198517,0.2714143,0.1175505,0.8540564,-0.4662117,-0.6733177,-0.7383485,0.4677794,0.5014029,0.6999049,-0.05941403,0.02792919,-0.8387077,-0.5026157,-0.3807172,0.8335614,0.8184509,0.2766798,-0.4287401,-0.7193246,0.7590728,-0.3398496,-0.1198941,-0.6472459,-0.5328817,-0.8074889,0.654938,0.5987167,0.7373977,0.8854084,0.4673476,0.2692299,-0.3851055,-0.3448962,-0.3024334,-0.18935,0.8614631,0.2620187,-0.8966718,-0.8457241,0.1285213,0.004675508,-0.2226468,
