-0.5615301,-0.153144,-0.8330078,0.4190931,0.3363106,0.7046454,-0.4509119,-0.09416568,-0.601644,-0.3271259,-0.8802199,0.4869282,0.4202073,-0.7304807,0.7362852,-0.1232423,0.1008846,-0.6743598,0.6172991,-0.481737,-0.33558,0.09631455,-0.721401,0.9198513,0.4080033,0.2431554,0.8902037,-0.04510844,0.6466019,-0.5607657,0.2660408,-0.7370284,-0.4103853,0.5943706,-0.3749312,-0.4864022,-0.4864079,0.7838943,0.7362888,0.990036,-0.3708419,0.7625113,0.001176715,-0.06660378,0.6481953,-0.7269778,-0.8904164,-0.3363811,-0.5277495,0.3215079,-0.417116,-0.06212986,-0.9745133,0.6223896,0.507848,-0.5389726,0.587923,0.06056678,-0.1229228,-0.3608264,0.9231505,0.2850549,0.3043637,-0.7011652,0.1766511,0.2264725,0.2275647,0.7545037,-0.4423145,0.988729,0.3406179,0.365344,-0.162191,-0.1137689,0.7998698,0.8874273,-0.1817712,0.5164051,-0.7381332,-0.1972235,-0.8973122,0.6519635,-0.8971345,0.09935725,0.5914736,0.5842414,0.9219425,-0.4824201,0.8960471,0.871526,-0.7580781,-0.1515046,-0.08407319,0.8786986,0.652267,-0.4871145,-0.3470031,0.6672225,0.6013081,-0.6264627,-0.2910658,0.431725,-0.6365275,0.7770574,-0.878804,0.002308488,0.1625968,0.5561924,0.9172461,-0.2517873,-0.1312069,-0.2248858,-0.7475841,0.02118242,0.5286653,0.4832265,0.2634985,-0.8212712,0.06677973,0.4435928,-0.5958264,0.8111298,-0.5203636,-0.3197535,0.9364254,0.263186,-0.06854928,0.5103157,0.8197374,-0.1652404,-0.9186847,-0.4809014,0.3678036,0.6350131,0.228088,-0.9212701,-0.3008434,0.4412749,0.4656188,0.7230775,-0.2516094,-0.07573926,-0.4554003,-0.009255528,0.7199078,-0.02282798,0.8272512,-0.5440607,-0.3673388,0.04665053,0.2196242,-0.8012013,-0.9808521,-0.3761135,-0.7534451,0.5898933,-0.4534708,0.2554214,-0.7926507,0.9703579,-0.3018626,-0.1492919,-0.6220698,-0.1759979,0.462785,-0.6514716,-0.5634925,-0.03860128,-0.5457067,0.09263718,0.6190953,0.5138292,0.6542358,-0.1766251,-0.8634655,0.5020878,-0.4047073,0.1009549,-0.2823726,-0.9991,0.3945827,0.4466169,-0.1502579,0.4360211,0.552084,-0.2598134,0.2248563,-0.6044412,0.01495183,0.4418774,-0.1309594,-0.3997775,-0.7156134,-0.7618425,0.712501,-0.03478277,0.5597558,0.01291621,-0.740319,0.1361352,0.02048028,-0.1772999,-0.8413153,-0.001711726,0.780386,-0.8727744,0.601979,0.9676702,-0.08858669,-0.7045815,0.7444961,-0.294279,0.9330842,-0.3978049,-0.2674996,0.12332,0.7139606,-0.7158885,-0.1379911,-0.8293831,-0.8124821,0.8947911,-0.2711989,0.7673874,-0.4725367,-0.5259945,0.8679883,0.772342,-0.6526124,0.6416154,-0.8220673,0.271661,-0.1905318,0.4286127,-0.4367303,-0.8824937,-0.5310299,-0.3149923,0.5528777,-0.06193745,0.4349537,-0.5033288,0.8375723,-0.7218382,-0.2131435,0.4129958,-0.8119938,-0.2495919,0.2021652,-0.7644551,0.6657236,0.5373263,0.3515475,0.135692,0.8161428,0.2394603,0.8838618,-0.3602327,-0.8187816,0.1570305,-0.7662835,0.9724627,0.9274559,-0.8487105,0.5445747,0.6157923,-0.133376,0.7884946,0.7012801,0.448173,-0.1887962,-0.8233764,0.2026004,0.4930999,-0.6389163,0.5827987,-0.5409353,-0.6130884,-0.6722982,0.3153064,0.1925544,0.04345787,-0.1813363,0.5413959,-0.6035337,0.01563728,-0.6327314,0.417644,0.4714687,0.6009097,0.7934122,-0.9449832,-0.9402418,0.2435006,-0.3199612,0.4229956,-0.486122,0.01710069,0.1575619,0.2745442,-0.885483,0.6127524,-0.2462832,0.1406096,-0.7893176,0.2536352,-0.8450389,0.2008697,-0.4922801,0.8937411,-0.2183157,0.6588163,-0.2526292,0.1166593,-0.8655765,0.9112842,-0.9458442,0.04949629,-0.5114837,-0.262194,0.8621469,-0.04661739,-0.9056013,-0.8608685,0.328675,-0.8858483,0.8843746,0.8609164,0.9927833,0.04961765,0.6898363,-0.7959926,-0.2313327,-0.1743692,-0.3663932,0.02929366,-0.9125357,0.9572961,0.6343253,0.4840584,0.03203547,0.9951143,0.1306866,0.5361655,0.2897382,0.1512433,0.3298094,0.9439044,-0.3204404,-0.7157097,0.4438379,-0.4247724,0.0980202,-0.3529948,-0.7917531,0.7127197,0.8525114,0.560231,0.7312531,-0.1898202,0.1642765,0.4749355,-0.9860291,-0.5757704,-0.6884246,-0.01014197,0.533289,-0.7716832,0.003288865,0.3614564,0.145106,0.8102624,0.5555594,-0.9187317,-0.4660062,-0.3213857,0.611656,-0.131781,-0.400406,0.0100919,-0.8101358,0.7684166,-0.03495085,0.1540796,-0.8251448,0.148259,0.0150212,0.9151938,-0.8262053,-0.5817442,-0.1159884,0.1120986,0.3585234,-0.145224,-0.8010156,0.451051,-0.9037035,0.3236153,-0.1289376,0.5857487,-0.5649405,-0.5008368,-0.4156805,-0.1058928,-0.06128275,-0.270578,-0.5353978,-0.296218,-0.1223117,0.4391377,-0.1164037,-0.5160012,-0.9256065,0.280122,0.7043254,-0.2342073,-0.05252993,0.629513,0.8279886,0.2613449,-0.9219551,-0.5075345,-0.2426652,-0.1062919,-0.7552116,-0.6800077,-0.7650871,-0.6713221,-0.8437297,0.7915576,-0.2359043,-0.9713941,0.3979428,0.06073391,0.7894785,-0.9201462,-0.4191228,0.05647838,-0.8788991,-0.7629209,0.6625202,0.5535705,0.5992374,-0.4690021,0.3518453,-0.6100724,0.4086537,0.3948805,0.08026731,-0.4155518,0.580457,0.3718765,0.0152086,0.2073528,-0.280321,0.8982251,0.5931857,0.7336833,0.8887691,0.9007397,0.1185859,0.3429053,-0.8545506,0.5480556,-0.2305118,-0.5410347,0.1515371,0.9052684,0.1302029,0.3967247,0.8404145,0.1861547,0.5802958,-0.6810648,-0.831615,0.5941546,0.230734,0.9624503,0.9060795,-0.5516982,0.2777107,-0.04299176,0.5294549,-0.3427182,0.2766614,-0.08287323,0.2421876,0.7031331,0.286123,0.05443895,-0.5049968,0.9259186,0.7036245,0.884383,0.6693418,0.3060422,-0.4252447,0.7454822,-0.4010791,0.2141467,0.1145002,0.1634694,0.4282787,0.8456247,0.3334057,0.7893543,-0.3256959,0.03941119,-0.3661853,-0.641891,0.5258667,0.1874439,0.9691377,-0.1615733,-0.1605791,0.2231084,0.9354749,-0.3162895,-0.3346137,-0.1723524,-0.8798077,-0.0306977,0.2830377,0.3273606,-0.7889504,0.9454131,0.1320347,0.235927,-0.6144438,-0.2035455,-0.7456877,-0.6379895,-0.963855,-0.566982,-0.1178864,0.1314071,-0.1847047,0.1355749,-0.5127821,0.5861802,0.367734,-0.3423725,0.6470895,-0.5737836,0.9351633,-0.393932,0.7552516,-0.06753981,-0.7425799,0.2309893,0.9385276,0.633142,-0.1918629,0.9664619,-0.3901349,-0.4305314,0.2120255,0.2176298,0.8389008,0.06386077,0.2860067,-0.7937424,-0.5220811,-0.942976,-0.2165803,-0.2883364,0.8436892,-0.2243787,0.6618524,-0.6170719,-0.4701885,0.7071424,-0.7358663,0.3868048,-0.5902858,0.4856908,0.7777054,-0.02216423,0.1543251,-0.5163758,-0.740643,-0.02452004,0.2876639,0.6723864,-0.372727,-0.05353677,-0.1191486,0.998697,-0.722733,-0.3464881,0.0808717,-0.6269867,-0.6498666,-0.7107632,0.1028947,-0.05133235,-0.7476525,0.8983085,-0.4218396,0.4679666,-0.627528,0.2373351,0.8626647,-0.5177007,-0.3748699,0.876344,0.5908749,-0.1938752,-0.7775903,0.4742439,-0.7526336,-0.4029523,-0.1190163,0.5411229,-0.4989575,-0.1859478,-0.4514512,0.7945423,-0.6054661,-0.8770733,-0.6039333,0.7517688,-0.4521712,-0.8126705,-0.645206,0.3119206,-0.7868569,0.8681808,0.8919399,0.3912997,0.009070992,0.1445838,-0.3228613,0.4094586,-0.137045,0.06019461,0.09217227,0.4481862,-0.1205832,-0.2446676,0.8038247,0.2075421,-0.8122871,0.6191545,0.3334351,0.9747555,0.9468448,-0.194213,-0.4942504,0.02339709,0.9305294,-0.8802273,0.6049981,0.6386251,-0.7254395,-0.6446776,0.3903596,0.5850999,0.7163606,0.847913,-0.8341446,0.07228911,-0.6012831,-0.9107285,-0.2371305,0.6820703,0.3397913,0.1987783,-0.06098211,0.9713233,-0.238429,-0.09571326,-0.6983674,0.6954739,0.8566418,-0.001259685,0.1530443,-0.6782146,0.1728963,0.3977172,-0.8754008,0.2613189,0.2521317,-0.9573958,0.4447401,0.7153306,0.1613878,0.1034409,-0.6805799,0.4322746,0.7729645,-0.1106457,0.806608,0.1907595,0.4470193,-0.3674661,-0.08077133,-0.7946095,0.9313979,0.2482303,-0.6230586,-0.5799866,0.6057334,-0.2032384,-0.4925886,0.7894592,0.8153534,0.3620598,-0.05827773,-0.2657098,-0.817919,0.4920824,0.2153078,0.3438852,-0.3248245,-0.1988541,0.5813727,-0.5819068,-0.5018265,0.6780443,0.4335828,0.6594062,0.6526697,0.6627014,0.8350408,-0.7656152,0.2848465,-0.1496862,0.1329662,-0.59744,-0.1874596,-0.636194,0.823611,-0.5664475,-0.8937554,-0.335924,-0.2234672,-0.5391076,0.8263392,0.133464,0.9559076,-0.4971899,-0.042889,-0.3634356,-0.7864339,-0.07656395,0.9628823,0.6279187,0.8728776,-0.607017,0.1067289,0.8731034,0.9293275,-0.3211046,-0.6259542,-0.6479628,-0.08546603,0.7875271,-0.383438,-0.1652232,0.7459137,0.1595305,0.169408,-0.07431662,-0.6719084,-0.6516259,-0.8227375,-0.9291306,0.9091179,0.2998478,0.8760026,0.7237239,0.4392409,-0.5573967,0.1603674,0.6719933,-0.09304702,0.1208082,0.8528757,-0.0615052,-0.6591523,0.3653831,-0.06671226,0.155121,-0.7165859,0.2795691,0.6608503,0.1015838,0.3359931,-0.4267663,-0.5445991,-0.01213849,-0.8491423,-0.04478776,-0.4776732,-0.816185,-0.2112087,0.4057465,-0.6226094,-0.8685427,-0.4985887,-0.601613,0.5816224,0.9212043,-0.02280939,-0.6734445,0.2203506,0.2300454,-0.7567716,-0.545727,-0.6824646,0.3107216,-0.2263492,0.9917743,0.5972102,0.10053,0.9869862,0.6364739,-0.1058086,-0.7134142,0.866874,-0.7337909,0.3161898,-0.5526073,-0.1012403,-0.9639978,0.3407166,-0.5573659,0.6170657,0.4330165,0.7536976,0.1439379,0.661005,-0.8788602,0.02812541,-0.4116343,-0.7376115,0.2348799,0.3205171,0.2407597,-0.6917386,-0.4138492,-0.2408677,-0.01329291,-0.9743993,0.1949033,0.2589092,-0.3901325,0.1513196,-0.4052285,0.8664365,0.4228616,-0.4803461,0.4466243,0.7116575,0.07111752,-0.5251124,-0.211362,-0.8511996,-0.6303575,-0.4596444,0.6916788,-0.3450061,0.4822772,0.284168,0.3759809,-0.4786898,-0.9815152,0.4816089,0.5246413,-0.7634575,0.2291929,-0.01139033,0.5773113,-0.9478242,0.4254107,-0.1799742,0.06522858,-0.1082047,0.6374094,0.04219925,-0.428485,0.5355225,0.9553986,-0.5251694,0.6764061,-0.09028518,-0.4267563,0.2163483,0.8884923,-0.5587745,-0.5294018,-0.7199092,-0.4802693,0.1688081,-0.7746716,-0.3760906,0.6511855,0.9346702,-0.7465074,0.5242872,0.0005837679,-0.1917695,-0.8277271,0.2230142,-0.4178594,-0.1031495,0.4603474,-0.8797436,-0.3501805,-0.4372967,-0.3257357,-0.2059637,0.3502843,0.6158192,0.5533538,-0.7505965,-0.8453462,-0.2880625,-0.3990422,-0.742239,-0.8834283,-0.1583718,0.3984578,0.7947197,-0.7375598,-0.7548127,-0.7523336,0.4366593,-0.8052225,-0.3132788,-0.6984553,0.04224503,0.1492463,0.3774664,-0.2483,0.3823195,-0.6286712,0.2299651,-0.05385959,-0.7533026,0.05890167,0.951627,0.7059255,-0.4592384,0.5539293,-0.07176316,0.6528091,-0.131708,0.2343944,0.7155774,-0.4192203,0.2382983,-0.8113861,0.02281153,-0.4171132,0.7015669,0.5463831,-0.1708373,0.5021238,0.8566434,-0.9614182,-0.7069993,0.5135009,0.8369572,0.01008356,-0.8708887,0.1736387,-0.4785768,-0.7854567,0.04807222,0.5484438,0.7799382,0.04293621,0.2819936,-0.01185572,-0.8361773,0.4896748,0.164107,-0.6263618,0.1779317,0.2806797,0.5857852,-0.4410433,-0.005599618,-0.2089938,-0.7905302,-0.5212238,-0.2248315,0.2431895,-0.8908293,0.01336133,-0.4543403,-0.5400774,-0.04237545,-0.4567138,0.1379114,-0.8711748,-0.5411007,-0.881027,-0.08118451,-0.7751129,0.5083025,0.2092117,0.4068103,0.4949152,-0.497867,-0.9957917,-0.5670376,-0.3260993,-0.168506,0.130519,0.7980995,0.2907162,-0.9338114,0.8131444,-0.5664587,-0.4670857,-0.6062441,-0.7592096,-0.5847929,0.6773212,0.5713234,-0.3238446,0.8648283,-0.961803,0.1240507,-0.7709079,0.2516265,0.02227294,-0.7226472,0.3929579,0.1100014,0.69629,0.5142784,0.475436,0.8746777,0.8453269,0.1746756,0.1441869,-0.3151435,-0.2209572,0.1992399,-0.2782823,-0.7658556,-0.03155458,-0.5275054,-0.136068,0.8049598,0.8990569,-0.7246795,-0.3847226,-0.2719311,0.501792,-0.03567779,0.09777462,0.5437913,-0.1706017,-0.1088718,0.9470749,-0.716924,-0.9143395,-0.6956427,0.1187004,0.6204436,0.433502,-0.4886495,0.8201747,-0.2444817,-0.7010174,-0.6980107,-0.6436944,0.02716267,0.5361171,-0.3860687,-0.4322094,0.9155028,-0.348348,0.8710225,-0.3428675,-0.4755229,-0.1573282,0.7571752,0.1879169,-0.7198403,-0.6024425,0.5429256,-0.1025039,0.5616319,0.1131176,-0.6350033,-0.5454967,-0.3484176,0.1675569,-0.1200482,0.7781551,0.3903825,-0.7147744,0.9319341,-0.6852682,-0.783669,-0.3736566,0.4465892,0.203494,0.2174996,-0.8296754,-0.4481617,-0.4696866,-0.8818617,0.6487172,-0.750628,-0.7733386,0.3170059,-0.6215403,0.1225377,-0.6536252,-0.3610078,-0.1893648,-0.787282,0.4293158,-0.7432122,0.9397891,0.9241624,-0.452278,-0.6840949,-0.3082594,0.2482253,-0.0351907,0.2339751,-0.0715934,-0.003922105,-0.8557575,-0.01000774,-0.2215976,0.575448,0.5706823,0.629704,-0.602222,-0.3442436,0.3955393,0.1330785,-0.3396829,-0.5008187,0.00648725,-0.1366535,0.2686808,-0.7901552,-0.1444539,-0.9269035,-0.4635257,-0.7953215,-0.6273291,0.124869,-0.4770449,-0.3893989,0.2221345,0.7293918,0.4205973,0.9276731,0.2748249,-0.5011055,-0.1235551,-0.08285987,0.3988535,-0.7574782,-0.1422216,-0.1164798,0.7248151,0.5871801,-0.4168676,0.2171046,-0.07644427,-0.7796903,-0.6371002,-0.6252608,-0.4872423,0.6317449,0.4782264,-0.6180384,0.3317051,0.559917,-0.6673052,0.3177605,-0.7058547,-0.8867602,0.3961394,0.509191,0.1089712,0.5264895,0.4795556,-0.299805,-0.5910666,-0.2431866,0.7781222,-0.9883785,0.6778708,-0.9722273,-0.3267182,0.1956884,0.2934895,0.9548843,-0.695751,-0.06561792,0.7226558,0.4788651,-0.2807072,0.1213533,-0.764159,-0.8354781,-0.1673704,0.968569,-0.9910381,0.4705417,0.5837467,0.3822682,-0.01090825,0.5974314,-0.6776779,0.03301895,0.6426866,-0.1711501,-0.5424147,-0.99667,0.8804893,-0.1775903,-0.03026187,-0.898464,0.5232985,0.3529887,0.792248,0.4476929,0.6876695,-0.7097592,0.6477509,-0.7682562,0.02492678,-0.5878286,0.7925768,0.2261149,-0.6505752,0.2818897,0.3834739,-0.677686,-0.09687221,-0.7413616,0.3465908,-0.331889,-0.3118471,0.6755309,-0.7597363,0.8861036,-0.4716426,-0.1344455,0.9663041,-0.5398479,0.5668082,-0.2286021,-0.3251268,0.09128106,0.6634161,-0.1900975,-0.8867631,0.8263805,-0.03879201,0.9425704,0.6284304,0.9131243,0.4073379,0.3619499,0.4552426,0.7290111,0.1866237,-0.05132496,0.8560746,-0.8323345,0.08853805,-0.9507837,-0.3568386,0.3914528,-0.5629973,-0.7575941,-0.8090732,0.9513841,0.3888276,0.200262,0.9550774,-0.4169983,0.8687925,-0.8174219,0.05940092,-0.2666894,-0.1790913,-0.4433006,0.6027932,-0.7911274,-0.3341445,-0.8026075,-0.7625601,0.3883889,0.2667003,-0.1483978,-0.8200469,-0.02093232,0.29002,-0.6401205,-0.9385111,0.3508918,-0.8405364,0.8495059,-0.04375923,0.9871016,0.9626677,-0.5199711,-0.1823386,-0.787003,-0.8527117,-0.1829869,-0.6007147,0.1296347,0.07293713,0.4932518,-0.5894523,0.5229805,-0.5893245,-0.7432709,0.9180703,-0.3590862,-0.01438439,-0.5845115,-0.04695284,-0.8484387,0.3393688,0.4915717,0.4695959,-0.667932,0.9258711,-0.7960098,0.8887572,-0.2820684,-0.702569,-0.6708446,0.8470869,-0.1985093,-0.2905208,-0.2361308,0.8324509,0.1729761,0.06039417,0.7002566,-0.9578335,0.3701527,0.2914438,0.5789642,0.9515395,-0.9344957,0.01399672,-0.8742621,0.09490073,-0.4231974,-0.3454129,-0.4821051,0.5492239,0.9932537,-0.6564898,0.4816558,0.2494801,0.8315763,0.8785737,0.4946761,-0.9777992,-0.9663618,-0.8069572,0.6541071,-0.6638663,-0.3972291,-0.4214998,-0.463699,0.5924184,-0.8960242,-0.8036866,-0.6649868,0.9105175,0.4145813,-0.9890125,-0.429298,0.5757709,0.8152604,0.4002595,0.3375232,0.8453131,0.6483457,-0.05446804,-0.00274384,-0.8090665,0.5965328,0.9258709,0.5452538,-0.9372356,-0.9052086,-0.374765,0.1996902,0.3804014,0.9416857,0.2226394,-0.2378155,-0.2039093,0.9054587,0.2295758,-0.001606345,0.5090513,-0.02628052,0.9260266,-0.518347,-0.4324178,-0.4932543,0.5589883,-0.4113537,0.8191962,0.4989319,0.8334055,-0.09826672,0.1792868,-0.2530154,-0.8463271,-0.6705315,0.5331023,-0.439696,0.140792,0.206333,-0.1970769,-0.832022,-0.126587,-0.002468705,0.6443372,-0.3626012,0.7853787,-0.6887972,-0.1742746,-0.3692585,-0.05742919,0.7280908,-0.5886126,0.2240294,-0.03732145,0.2331997,-0.9385395,-0.4336704,0.7228565,-0.6094782,-0.2623526,0.4006081,0.1670645,-0.2521647,0.477679,0.9142349,-0.381173,0.3562574,0.3869703,-0.1295809,-0.2011095,0.1096524,0.1289631,0.366369,-0.2055799,0.6868024,-0.695277,-0.7326117,-0.2581269,-0.4788574,-0.9463673,-0.6683524,0.2169822,-0.2744762,0.706131,0.295495,-0.8821802,0.3120477,-0.658612,-0.1302656,0.7906222,0.4264743,-0.3564771,0.3469114,0.318568,-0.6033998,-0.103655,0.9747066,-0.7487969,-0.9405355,-0.4693638,-0.6907587,-0.7973185,0.8189318,-0.679343,0.6949785,0.7684538,0.3657057,-0.5234725,-0.2793299,-0.5634153,0.6978176,-0.2999357,0.3699367,0.8017693,0.1179785,-0.1982352,0.234805,0.7314765,-0.3152062,0.7150457,0.2333337,-0.291272,0.4917443,-0.3479849,0.4450612,0.8698986,0.5025768,-0.382804,0.9522827,-0.14824,0.635916,-0.4060189,-0.4981588,0.6463449,0.7462175,-0.2149891,0.4630346,0.1775161,0.660444,0.5054359,-0.103007,-0.4544283,-0.8710203,0.01980507,-0.9228692,-0.4552406,0.03419125,0.6313114,0.161687,-0.1015774,-0.3891102,-0.1945928,-0.04834211,0.325268,-0.1765145,-0.06894767,-0.3077971,-0.8156705,0.3851643,-0.2057759,-0.00458324,0.4293964,0.4228935,-0.7295842,0.8631573,-0.4675142,0.06593597,-0.7435827,0.8114748,0.8294015,0.9984388,-0.01640737,0.1811739,0.3144002,-0.7657716,-0.2610124,0.8208587,-0.09112608,0.9214482,-0.4872283,-0.1494423,0.6289806,0.2034448,-0.8674541,-0.04498422,0.5156949,-0.9125788,-0.6773603,0.2222978,0.6861029,0.09162867,0.07569087,-0.06401551,-0.5642622,-0.3053917,-0.5021129,-0.1970743,-0.552923,-0.5963786,0.2109195,-0.8095639,0.2278215,0.6412539,0.09342873,-0.1795462,-0.7656963,0.01943505,0.4709334,-0.9754956,-0.958607,0.02128088,-0.8896534,-0.7614408,0.4395394,0.8524027,-0.1850799,0.5885348,-0.193766,0.7750211,-0.7967584,-0.009117007,0.8312225,-0.2097572,0.3882923,0.1692623,-0.1877149,0.1088291,-0.1399213,0.4249675,0.3256991,-0.9884939,-0.3449575,0.1836389,0.2751455,-0.2358555,0.8427231,-0.8273354,0.6759107,-0.8931777,0.2387146,-0.48063,-0.179778,0.5293367,0.9611692,-0.3088385,-0.2167383,0.09439147,-0.03622115,0.01572502,0.3380208,0.361356,0.1821219,-0.1181549,0.1188463,-0.2999748,0.3522611,0.006273866,-0.1702739,0.979382,-0.4806033,-0.5393705,0.8019128,-0.4147779,-0.5345435,-0.8622971,0.1823896,-0.9940071,-0.1918164,-0.1970466,-0.306868,-0.5989213,-0.4255513,0.01021254,-0.8356459,0.09846413,0.4387677,0.732265,0.4893105,-0.9328535,0.8829477,-0.4109596,-0.1591431,-0.1579596,0.3939383,0.4771464,-0.7309196,-0.4747204,-0.2026969,0.2670736,0.8598509,0.1817786,0.02639782,0.1887845,-0.3890797,0.3357055,0.6652222,0.87885,-0.5970662,-0.6087301,0.336941,-0.887903,-0.9535704,-0.3009948,0.2029845,0.483109,-0.6340902,0.008871198,0.1601583,-0.9336348,0.04797781,-0.4759694,-0.02697456,-0.3021985,-0.4538654,-0.263219,0.6734819,-0.2424091,-0.713264,-0.6291955,0.3131771,-0.6513042,0.3175905,-0.1225177,0.7894363,-0.3739702,-0.3009318,0.3774648,-0.9904108,-0.433503,-0.9849219,0.2858765,-0.3076133,-0.09651196,0.9193237,0.2728038,-0.05408466,0.1108373,-0.1156658,-0.8205495,-0.6165006,-0.814625,0.3636742,0.2291147,-0.9766588,-0.511833,0.007580876,0.1061331,0.01913059,0.3261814,0.2424284,0.3721707,-0.5232642,0.4618561,0.9198003,-0.5560694,-0.4794832,-0.00635016,0.05965483,0.6646864,0.6538773,-0.8831866,-0.1648723,0.02528584,-0.6546571,-0.2133211,-0.6676059,0.1435283,-0.333907,-0.1717042,0.4129665,-0.1490859,0.849046,-0.4672195,0.2742741,-0.3057832,0.7089264,0.3078015,0.9804423,-0.05549753,-0.01047289,0.01677287,-0.7553716,0.5428431,-0.1618618,0.7276201,0.6781962,0.9961262,-0.9908626,0.4278166,-0.3545295,0.1849934,0.7470496,0.3627768,0.3852127,0.8263834,-0.5081654,-0.4548205,-0.1454471,-0.5378623,-0.2118615,0.6774907,0.3162322,0.1249393,0.9809844,0.6800346,-0.04316199,0.5766649,0.931504,-0.3260363,-0.1106502,0.9394553,0.252636,0.01413929,0.4407692,-0.5903676,0.7639627,0.03390253,0.6188338,-0.5975287,-0.4069108,-0.7588136,0.8214755,-0.5625513,0.9202282,-0.9424434,0.7758532,-0.7422705,-0.4312972,0.9014356,-0.5493484,0.4451458,-0.1559454,0.698102,0.5469792,0.4601953,0.8129072,-0.1925496,0.2327844,0.5918112,-0.0005480051,-0.9028025,0.9792097,-0.1882464,0.3473356,0.4948063,0.6612318,-0.6698127,-0.8600628,-0.5165386,0.3853846,0.1684886,-0.5263526,0.4981425,-0.690007,0.03447449,0.4939535,0.3233614,-0.8086364,0.07546508,-0.006922126,-0.3997277,-0.3317209,0.4403956,-0.5033331,0.6670854,0.7937558,0.6526763,-0.641711,0.8297443,-0.04781568,0.109322,0.1758913,-0.5898004,0.01786149,0.8425784,-0.06238163,0.374933,0.9853849,-0.7958655,-0.5589874,-0.1664692,0.201497,-0.1453344,-0.02129114,0.3374815,0.6031554,-0.2166675,0.9059198,0.1439105,-0.5411587,-0.8102379,-0.4875005,0.7363684,0.848032,-0.9413121,0.7817371,0.8842764,0.9555919,0.2139207,-0.9040711,0.8077776,-0.7434514,-0.05435979,-0.5753312,0.4994357,0.8215916,-0.9618745,-0.6472716,-0.5852373,-0.641156,-0.6073766,0.397275,0.3109183,-0.8708205,-0.6714282,0.5977862,0.3736384,-0.9329331,-0.1180722,-0.8239129,-0.8408403,-0.4039508,-0.5157738,0.6889408,0.4092455,-0.7772462,0.6447608,0.6608634,-0.5680339,0.1054271,0.05574024,0.1992775,0.6327593,0.8499405,0.08223045,-0.1814855,-0.2577046,-0.3385049,0.2084135,0.6057291,-0.6051605,-0.1802226,0.5701909,0.4997802,-0.1969429,-0.4632882,-0.9664173,-0.3541721,-0.5239201,0.1975273,0.8121591,-0.1900874,-0.09074152,-0.2776185,-0.9649377,0.2535801,-0.1647717,0.2475349,0.464648,0.5959291,-0.2222468,0.3919182,-0.846297,0.9316092,-0.8683033,0.2962677,-0.2792944,0.7878697,-0.4499072,-0.8160131,0.226993,-0.830518,0.6124463,-0.1053606,0.629961,0.8203447,0.3413632,-0.4446245,-0.2653025,-0.8780794,-0.6921103,-0.5079565,0.5888782,0.7405033,-0.573832,-0.01663315,-0.4238476,-0.4718994,-0.4281565,-0.1267027,-0.6391845,0.2062811,-0.001514554,0.935452,0.9552128,0.1550719,-0.4387063,-0.1607264,0.4579773,-0.1323019,-0.7601709,0.3935215,0.66626,-0.5902579,0.6072671,-0.6094308,-0.8902802,-0.9945242,-0.8878453,0.0004667044,0.6099687,0.142934,0.7611935,0.03051174,-0.7105064,-0.5250311,-0.4977561,0.2062141,-0.1546313,0.4199843,-0.9014001,0.4733887,-0.1637791,0.3126054,-0.4133536,0.6426322,0.5481207,-0.5063584,0.04847944,-0.4946736,-0.3944637,-0.9938078,0.3630507,-0.5505624,-0.726799,-0.3272542,0.7633293,-0.7005086,0.2212924,0.8791704,-0.8792412,0.5347559,-0.9265602,0.6192603,-0.2761384,-0.7224531,0.1723536,0.08472955,0.08416331,-0.6399865,-0.3391353,0.3082221,0.7480607,-0.7640345,0.9999661,0.8688262,-0.979557,0.5851238,0.4233341,-0.6329706,-0.4642404,-0.8193529,0.9899654,-0.5449746,-0.9273844,-0.7252834,0.6225789,0.4099798,-0.689652,-0.7534709,0.6102355,-0.2682883,-0.8039482,-0.4225048,-0.3950244,-0.8350389,-0.9904847,-0.2183737,-0.6265452,-0.6583087,-0.9743202,0.6087663,-0.1903428,0.2395931,-0.62236,0.5578132,-0.3637725,0.01399863,0.09514415,-0.8526902,-0.9945307,-0.09314239,0.6534762,0.5299828,-0.6326442,0.4114406,-0.4668804,-0.1922823,-0.7072783,-0.6434369,0.7580292,0.4326959,-0.3143934,0.4106655,0.4576886,-0.3132991,-0.5003471,0.9143991,0.4919982,0.4999819,-0.6444042,-0.7175832,0.906245,-0.2470688,-0.7366199,0.134842,-0.7489102,0.4328482,0.1326007,0.01716816,-0.753844,-0.04867733,-0.4686748,-0.5733087,-0.8645284,0.4482341,0.1461953,0.5576217,0.9110594,0.2302002,0.4214802,-0.2621857,-0.1375335,-0.9949958,-0.656209,0.04852307,-0.7932904,0.7578378,-0.4393662,0.640363,0.9571056,0.4514158,0.957592,0.1429349,0.4488661,-0.4782234,-0.25146,0.2561483,-0.8731451,-0.8406546,-0.2732893,0.8245566,-0.1477176,-0.9295142,0.9109364,-0.5615153,0.5261877,0.4229376,0.4126148,0.3500581,-0.1462651,0.7929459,0.6323323,0.861587,0.02467167,0.614254,-0.210837,-0.7341411,-0.287011,0.8605936,0.3837938,-0.2781025,0.2467991,0.7587905,-0.6907866,0.3563445,0.9671481,-0.6224506,0.7206433,-0.4810885,0.8758619,-0.5026011,-0.03962004,-0.6864662,0.8973899,-0.3889745,0.6098278,0.2824864,0.8326302,-0.06371891,-0.5331664,-0.60131,0.07181776,-0.04505408,0.1910781,0.1736943,0.9272904,0.8630948,0.272428,0.19884,0.8993485,0.4718518,0.2384032,-0.4973651,0.5204723,0.6973064,0.4041116,0.05939162,0.9814246,-0.5806975,0.8685162,-0.04812944,-0.7429378,-0.393345,0.06630647,-0.4508983,0.5842378,-0.4298264,0.03209722,-0.3361984,0.9987817,0.2972369,0.8860028,-0.4535049,-0.2911204,0.05090201,0.2511764,-0.8416083,-0.7743056,0.9319065,0.435241,0.06652749,-0.2483298,-0.8322902,-0.8117213,-0.04747927,0.9287319,-0.18619,0.9127526,-0.268248,-0.5164654,-0.3628281,0.8868079,0.9633749,-0.1088887,0.8944886,-0.3796824,0.5032852,-0.7949483,-0.1348904,0.6578405,0.9602137,0.3689151,-0.004132867,-0.001022935,-0.07353532,0.4075842,-0.4583944,0.9058809,0.9337623,-0.220395,-0.9925351,-0.2627536,-0.3426567,-0.1864275,-0.1978856,0.296088,-0.9902442,-0.1137496,0.1605819,0.3152311,-0.5871193,-0.7318602,0.5827348,0.9163857,0.6519091,0.8497295,-0.4656173,0.3150868,-0.2164105,-0.09343827,-0.06178963,-0.8571548,0.05849564,-0.3220068,-0.02952206,0.9310484,-0.09075701,0.963877,-0.2017719,-0.3194658,-0.1747442,-0.6748152,-0.2883443,0.09597313,-0.809237,0.05793273,0.5690985,-0.3941096,-0.7512684,-0.2117862,-0.823813,-0.6600041,-0.8165798,0.4086163,0.5612319,-0.5960276,-0.04985464,0.6361916,-0.4499537,-0.1900378,0.08867919,-0.003929257,-0.9055479,0.3832178,-0.4242743,0.02928054,0.8369882,0.443898,0.08321536,-0.7506359,0.1520435,0.5438159,-0.0565151,-0.06163251,-0.9051111,0.1680573,0.287396,-0.8265142,0.8640294,0.9808547,-0.2379056,-0.7699947,0.7574301,0.3035905,0.8125961,-0.8329747,-0.606539,0.5520048,0.4942064,0.3098099,-0.8567009,0.7562261,-0.02260149,-0.8376243,0.03134549,0.7132342,-0.008993745,0.1464816,-0.921098,0.3421426,-0.8610065,0.3458693,-0.02995813,0.4034956,-0.8166289,-0.3983139,-0.6443648,0.4869013,0.3072915,-0.8805962,0.05785739,0.3921058,0.2648406,-0.1173943,0.2341825,-0.430806,0.4445386,-0.1214949,-0.1532761,0.945189,0.1382931,0.3112893,0.4793487,-0.4683253,-0.553628,-0.3896357,0.1436058,-0.8189118,-0.9000072,0.7263305,0.0584904,0.4930336,-0.01398504,0.6625292,-0.7950568,-0.3223196,-0.917928,0.7265193,0.3556805,0.9334757,-0.2079631,-0.9918826,0.8394215,0.3057108,0.1292948,0.8135378,0.0494777,-0.9926109,-0.5291891,0.9978299,0.1135157,-0.2907139,-0.8520684,-0.1926562,-0.4046992,-0.689074,-0.8107944,-0.1096109,0.739789,0.6207986,0.1632069,-0.7299016,-0.0196501,0.6395435,0.3292618,-0.2837313,-0.08859599,-0.4438399,0.8469217,-0.7469749,-0.5395374,-0.4055127,-0.2585558,-0.7143972,-0.7227621,-0.8318765,0.2117611,0.4371336,0.09380925,-0.4912137,-0.2147855,-0.5107684,0.8571241,0.2145683,-0.01645887,0.1686352,-0.6273346,0.2126776,0.7804854,0.1718694,-0.2660638,-0.4239951,-0.5302174,-0.9138012,0.482857,0.2803905,-0.7545652,-0.541306,-0.3788573,-0.5430286,0.6650507,0.4605484,-0.8920465,-0.3341247,0.5776792,-0.5486937,-0.7432599,-0.2088286,-0.4852492,-0.1380442,0.5908761,-0.9806354,0.2422386,0.7037494,0.7264066,-0.9754498,0.4205501,-0.380896,-0.6032712,0.1437351,0.13407,-0.1267706,0.5257764,-0.7115412,0.3715382,-0.8925102,0.8993506,0.07308376,-0.2151412,0.4958282,0.5796268,-0.8711541,-0.7747655,0.7258031,0.1893326,-0.6749544,-0.06094038,0.4281809,0.5454457,0.7686155,0.4239035,0.2302819,0.3412941,0.6789327,0.9269509,0.1380571,0.4918001,0.6393816,-0.8736935,0.6772802,-0.06223404,-0.2301291,-0.2620133,-0.449972,0.529937,0.7843559,0.07218087,0.9029715,-0.9543862,-0.02851832,-0.4545127,0.1917998,0.02851522,0.806838,-0.06670368,0.3129361,-0.4128486,-0.5078049,0.2158965,0.9612854,-0.004767776,0.3938873,0.1219083,-0.7173729,0.2280899,-0.5577624,-0.05501592,-0.04904735,-0.6727355,0.9474585,-0.995738,0.6259975,-0.3230621,0.2011553,-0.693404,0.9663277,-0.8801808,0.2192413,0.3254588,0.7309234,-0.4717222,-0.8335357,0.9394286,0.9457641,-0.5783713,0.6510656,-0.5090363,0.9845195,-0.703037,0.2887578,-0.4556435,0.4341872,-0.5271959,-0.2151769,-0.1553799,0.7347913,0.4477096,0.01774061,0.194733,0.4247134,0.2628076,0.9836524,0.498455,0.4594913,-0.557795,0.3700941,0.8789146,-0.5734694,-0.9174137,-0.7619481,0.703162,0.6803598,0.05119526,-0.07898962,0.2245864,-0.3205754,-0.326779,-0.2356368,-0.6643462,-0.8138511,-0.7720699,-0.8423886,-0.7437494,-0.5597687,0.4570415,0.2982671,0.009125829,-0.4797689,-0.7336316,0.4458857,-0.1823925,0.4966612,0.2619796,0.9499538,-0.3076593,-0.7911704,0.1926061,-0.1129645,0.9335501,-0.1852144,0.8747122,-0.1141423,0.6529741,0.8046644,0.3734639,0.2166854,-0.9894974,-0.3558375,0.04781091,-0.8663616,-0.9634378,0.5724857,-0.8868058,-0.709995,0.588681,0.6128047,-0.3683208,-0.4762625,-0.1297742,0.682018,-0.6807578,-0.9727831,-0.7715786,0.8754606,0.7757957,0.1880404,-0.2838918,0.7165418,-0.7784464,-0.5322735,-0.5219679,-0.4622797,0.8260374,-0.4993099,0.4764943,0.5772109,-0.1728019,-0.7047033,-0.1773704,0.1727017,-0.48725,-0.1532048,-0.4191078,0.5681639,-0.4679953,0.8783598,0.07678807,0.3826582,0.3415332,0.6718152,-0.6754694,-0.1287392,-0.7508042,-0.3172344,-0.08294928,-0.04404175,0.7621696,-0.8634055,0.2509911,0.5427659,0.7291915,0.2076479,0.8818762,0.7839434,0.7299387,-0.9577765,0.06173456,-0.1988014,0.1593896,0.6610813,-0.1117584,0.2684565,-0.8307769,-0.3089801,0.8756015,0.2826633,-0.4746906,-0.5137706,0.9518142,-0.5820453,-0.958169,-0.854109,-0.8011727,0.9117973,-0.7979977,-0.7240591,0.8343503,0.3986626,-0.6987388,-0.3044535,-0.7057505,0.328094,-0.8832049,0.3043928,-0.6495709,0.9119,-0.7422442,0.9660568,-0.01302993,-0.0469929,-0.09542167,-0.04317272,-0.5966172,-0.5938327,-0.7825067,-0.5418179,-0.3091868,-0.2883126,-0.008525491,-0.03220737,-0.9758267,-0.8042173,-0.9922831,-0.1926821,-0.5040753,0.1441566,-0.3231059,0.05950415,-0.5663197,0.5248058,-0.4277114,-0.3669835,0.7190533,0.08720434,0.2036549,-0.8506098,0.326798,-0.8970335,0.3185999,-0.3453106,0.3845673,-0.1925246,0.5009537,-0.9046412,-0.06511676,0.6450751,0.939738,0.7038624,0.3167295,0.1470009,-0.97119,0.2718606,-0.6952319,0.9892755,-0.7974322,-0.89539,0.4725254,0.5364246,-0.1501166,0.6517267,-0.8293614,-0.01110756,-0.6833034,0.06539762,0.2022637,-0.4957627,0.8707452,-0.1098713,-0.7144308,-0.6416836,0.6053941,-0.005713344,0.889055,0.291117,0.4411769,0.8995838,0.5478172,0.8629222,0.6846766,-0.983232,-0.6096561,0.3217962,-0.509989,0.8283758,-0.9059248,-0.3596178,-0.5240889,-0.3063298,0.2408153,-0.8841641,0.1887697,0.01260221,-0.5532925,0.1713384,-0.5627456,0.9650578,-0.01362693,-0.8736291,-0.06375086,0.1463078,-0.5042818,-0.1616713,-0.3182148,0.8296478,-0.9896538,0.6561983,-0.06165683,0.6349971,0.1771399,-0.5695217,0.1620475,0.9418287,-0.1642591,-0.004446149,0.9009719,-0.0947932,-0.6106808,0.2020625,0.5125422,-0.02087772,-0.6131837,-0.1139611,0.3048108,-0.4708098,0.74751,-0.248901,-0.8220086,-0.2274669,-0.4298164,0.8795309,-0.7867124,0.3050597,-0.6690705,-0.3123399,0.8293121,0.5193458,0.3276083,0.9086993,-0.3313729,0.06741202,-0.4202551,0.8680043,0.437192,0.2606711,0.7196867,0.001287103,0.2108442,0.942102,0.08738959,0.0357033,0.8949776,0.0867008,0.1052369,0.6681259,0.4634039,0.8372426,-0.09183514,0.5961761,-0.6600752,0.7275081,-0.5057566,-0.1526767,-0.3463289,0.05802715,-0.64922,-0.7828479,-0.7535729,0.3000627,-0.5133874,0.421313,-0.7617328,0.02680361,0.5771706,0.4946547,-0.4019762,-0.5214789,-0.784672,0.6516349,0.005616069,0.6063204,-0.9570103,0.08817899,-0.6125867,0.5012178,0.6099665,-0.147488,0.2902789,-0.03908336,-0.1128765,0.5075724,-0.1118399,-0.9585471,0.8664672,0.3842564,-0.4497925,0.2255343,-0.6131403,-0.2963935,0.1325203,-0.2265223,0.002101064,0.3702888,-0.5787432,0.806138,-0.8274412,0.3755245,0.1276649,-0.1264888,-0.1236445,0.807225,-0.6822431,-0.4693793,-0.174631,-0.5415606,0.5496736,-0.3780004,0.8817022,0.9152498,0.8810902,0.1541172,-0.003684163,-0.7792523,-0.4991299,-0.4291645,0.8046405,0.2897952,-0.6974196,0.5260465,-0.2025031,0.9410815,0.5751312,-0.1681105,0.9895036,0.9167447,0.5375838,0.428396,-0.5177326,-0.4636081,-0.3391668,0.4146829,0.5934947,0.278111,-0.9875927,0.3047421,-0.9711299,0.1755792,0.09319627,-0.8904023,-0.452104,0.1345724,0.4671881,-0.4801136,-0.3102206,-0.2385112,-0.4930943,0.2847395,0.6532698,0.312042,0.6493776,-0.767077,-0.9933443,-0.1735731,0.04469049,-0.2684315,-0.7620757,0.3071024,0.7020257,-0.7851791,0.1703347,-0.7231421,0.01111567,-0.1257519,0.7487686,0.8250072,-0.6808331,-0.6991227,0.6813431,-0.467929,-0.7378087,0.3131299,-0.1985511,-0.116438,-0.7721677,0.7276297,-0.9588063,0.1914519,0.4220419,0.6205611,0.03580844,0.3866749,0.003279328,0.874218,-0.6582196,0.1004521,0.1315991,-0.732646,-0.3378302,-0.04124153,-0.09433782,-0.5916352,0.7426052,0.7343593,-0.2039071,-0.4225057,-0.7337456,-0.06863415,-0.5277417,-0.2418212,-0.635236,0.9814651,-0.9776039,0.8978925,-0.7713504,-0.6624703,0.2975383,-0.5901532,-0.7250876,0.9830523,0.3372433,0.8602977,-0.9838967,0.4119303,-0.3976523,0.2567379,-0.9851398,0.7512329,-0.6542773,0.4654231,0.08546317,0.2913141,-0.6395426,0.6131263,0.0482589,0.7234337,0.260726,-0.5052171,-0.325262,0.2581241,0.4734602,-0.7952473,-0.2628375,-0.9280572,-0.1684114,0.6505566,0.0003060102,0.8185732,0.6612756,-0.6215513,0.3867292,0.4806759,0.3650353,0.6120188,0.9685194,-0.4177228,-0.1274976,0.09038889,-0.9389598,-0.9368417,-0.03263152,0.3563337,-0.6280854,0.9119716,0.1745819,-0.5857825,-0.5823956,-0.4683751,0.653342,0.9704306,0.2529151,0.2033075,-0.6728303,-0.4439584,-0.7952383,-0.2475737,-0.05418003,-0.579704,-0.9729447,0.01748812,-0.7667768,-0.6995106,0.5692713,-0.150035,0.8815553,0.05199754,-0.1302766,-0.003466725,0.3392675,0.637815,-0.2031759,0.1054019,0.2431184,0.1646849,-0.6879251,0.5124278,-0.1408097,-0.9299316,-0.2566911,-0.1167594,-0.7345357,-0.2428228,0.6041613,-0.5214643,-0.3927413,-0.1231664,0.3367262,-0.2807001,-0.9283853,0.4693923,0.2094361,-0.2339164,-0.1396328,0.3067226,0.7668486,0.2749288,0.2772472,0.8576531,-0.6095755,-0.5612819,-0.5580776,-0.7182419,0.1053594,0.4626935,-0.0911299,0.0998913,0.2704208,-0.8159926,-0.962254,0.1652802,0.4444852,0.6199887,-0.6028492,-0.7706587,-0.882215,-0.7262182,-0.6189137,0.02481425,-0.06226671,-0.5853875,-0.7939692,-0.5274539,-0.967684,0.01337492,-0.7744908,-0.4968823,-0.1391693,-0.1511914,-0.5125084,0.1029099,-0.8543296,0.9396648,-0.1548318,-0.4781226,0.5779829,-0.4199761,-0.7345419,0.5402851,0.9722793,-0.5063303,0.1911098,0.3244786,0.2241,-0.8619461,-0.2134148,0.8498931,0.147916,-0.7878535,-0.5615656,0.07185423,-0.8483586,0.5197289,0.6290359,0.1069447,-0.5898449,-0.3679656,-0.04397023,-0.9519155,0.2200419,-0.8082297,0.9147992,-0.6169884,0.003408551,-0.01606047,0.8825934,0.1477376,0.9762559,0.5720437,0.8384485,-0.3444885,0.015499,-0.2015036,0.8909235,0.6629026,0.6386182,0.1366116,0.866703,-0.4071339,0.2869699,0.1360615,0.04746497,-0.5401688,-0.7550433,-0.1304704,-0.9776733,0.2407969,-0.2838241,-0.1472892,0.1479362,-0.6925123,0.4759014,0.8178952,0.6024389,0.8411534,0.2046477,0.7315371,-0.5386107,0.2678497,0.003682494,-0.2027446,0.8918998,-0.7448282,-0.07864177,-0.1220976,0.4131804,-0.9538615,-0.1740705,0.3558991,-0.8727639,-0.1767689,0.008179545,-0.1209356,0.9500067,-0.59059,0.1148719,-0.646569,-0.03877342,-0.7094591,0.6359372,-0.6843071,0.911674,-0.7994852,0.5628092,-0.2246743,0.6811457,-0.1085013,0.4570632,0.9435313,0.9017994,-0.9937549,0.527674,0.4585309,-0.1707996,0.2870512,0.8838148,-0.1900858,-0.2014703,0.2446254,0.321254,-0.456839,-0.5179515,-0.8423481,0.8873401,0.06280911,-0.4212559,0.6699281,0.9124024,0.2190632,0.4194493,0.4534371,0.2792418,-0.5352838,0.6392128,-0.4457895,-0.9642384,-0.2455939,-0.6025302,-0.5217137,-0.1277884,0.7874551,-0.7462585,0.2379023,0.5750139,-0.3087403,-0.3592254,-0.7515979,0.8369026,-0.6992469,0.4003007,-0.6119468,0.3472943,0.7442422,-0.2312595,-0.5278869,-0.1933905,0.5018036,0.9892864,-0.7797351,0.3625753,0.6145027,0.683996,-0.7803483,-0.7624946,-0.9587951,-0.9452713,-0.3930773,-0.7082653,-0.7609434,0.4021015,0.6088521,-0.752913,-0.3621424,-0.07213366,-0.7323875,-0.8782036,0.3272398,-0.3832129,0.2245721,0.09054887,-0.04667342,-0.2028493,0.2720151,-0.6988292,-0.7799222,-0.2237111,0.1527842,0.2452005,-0.6000941,0.9727161,-0.9559608,0.4727921,0.4057224,0.5562432,0.09432137,0.4965022,-0.8592336,-0.9244723,-0.3328665,0.9067662,0.3833103,-0.907918,-0.5162256,-0.07059062,-0.6973901,-0.5634167,0.6238577,0.5688787,-0.8220403,0.6532719,-0.352029,-0.07576931,0.8166282,0.346657,0.1162888,-0.7107871,-0.9496109,0.7755766,-0.6692989,0.13388,-0.27412,-0.4467422,-0.7707503,-0.6625354,0.429275,0.857579,0.3289549,0.07696569,-0.3128008,-0.7117958,-0.4606475,0.07503688,0.8806157,-0.04388988,0.7458107,0.733453,0.8003149,-0.008386016,-0.02233565,0.1195816,-0.7904937,0.653616,-0.693563,0.5095162,-0.8472979,-0.3053087,-0.143473,0.7537913,0.0727936,-0.7069249,0.05616677,0.504389,0.8410449,-0.6033452,-0.7650692,0.9035003,-0.9907351,-0.8726668,0.7443902,-0.03073967,0.5677776,0.930794,-0.7769485,0.9108183,-0.687845,-0.513905,0.2523057,-0.4043099,0.2341083,-0.6184204,0.08735526,0.3298292,0.5069516,-0.5598943,-0.6469707,-0.3941256,0.9829302,0.3763373,0.03127778,-0.4062537,-0.566433,-0.1561753,-0.2202309,0.5994689,0.9381845,-0.8527608,-0.1484901,-0.02783644,-0.137226,-0.7219765,0.388768,-0.5197077,-0.1389848,-0.4043239,0.5732419,0.7668431,-0.5451736,-0.5749195,0.4903033,-0.4976474,-0.517112,-0.2458843,-0.8378072,-0.601361,-0.1275011,0.8324571,-0.4724275,0.7288234,0.2940967,0.4706995,0.4453337,-0.699445,-0.8221498,0.4264221,0.4745932,-0.9954739,-0.2415255,0.9474957,0.6267512,0.2711318,0.717165,0.7507732,-0.7494128,0.4850218,0.7896152,-0.8848491,0.3584967,0.6115201,0.9284906,0.5205631,0.3084829,0.7775548,0.7756717,-0.1463059,0.1603311,-0.2218732,0.7251043,0.4384346,-0.335986,-0.5883908,-0.4322048,-0.7181182,0.1255542,-0.9450448,-0.5256627,0.808815,-0.8761532,0.5122271,-0.9281883,-0.8070252,0.2750807,-0.0005022287,-0.1370894,-0.5054822,-0.2978164,-0.3802043,0.4310582,0.4518664,0.7926846,0.3473835,-0.7822857,-0.3271967,0.3474665,0.9320858,0.07685602,0.1573011,-0.5702589,0.7762625,0.8670216,-0.9227469,0.07701719,0.5246546,0.8728433,0.3922422,-0.8745542,-0.9927342,0.459126,0.1421112,-0.6511083,0.8559532,0.1082605,-0.7632916,0.7147198,-0.2923971,0.7717419,-0.184949,-0.8088131,0.4921615,-0.2909571,-0.4220816,0.03748953,0.09685338,0.8962772,-0.7027066,0.8647926,-0.1579891,0.3277376,0.8363073,0.8346972,0.6589239,-0.2265941,-0.09765565,0.6717904,0.6413164,-0.8060176,-0.7181013,0.1420609,-0.6385326,-0.4420713,0.4046123,-0.8092253,-0.1667033,0.2380041,-0.4696378,-0.73721,0.614502,-0.1441225,-0.2231735,-0.6007645,-0.7681038,-0.3277394,-0.655498,-0.4610401,-0.8812032,-0.9061761,-0.2037126,0.07564008,-0.8606524,-0.8394921,0.5055172,0.5492578,-0.1474925,-0.7584677,-0.5744448,-0.9757771,-0.4134432,-0.06373417,0.949728,-0.2293249,-0.4062396,0.6366189,0.9217191,-0.1809086,-0.4989442,0.3715205,-0.6691351,-0.1898869,0.07117283,-0.3394383,-0.7148442,0.3474789,-0.1670121,-0.911835,0.2188553,0.09723413,0.8258958,-0.996341,0.6592648,-0.09013879,-0.3978728,-0.001132131,0.5174348,0.5558312,-0.1174244,0.3486693,-0.3674396,0.4049995,0.7301896,-0.6102948,0.1406668,0.507273,-0.31116,0.4468901,0.3625269,-0.2678257,-0.6250033,0.3145387,0.3408098,-0.9934549,-0.00888288,0.8862386,-0.7519767,-0.9435053,-0.1715614,0.2593966,-0.6120901,0.9341321,-0.4090711,-0.862349,0.113161,-0.4171883,0.5562909,-0.3965515,-0.708003,-0.5160913,-0.07093656,0.5252988,0.4068532,-0.9552591,-0.3184973,0.4046669,0.405839,0.5644388,-0.9414101,-0.1201347,0.6982739,-0.8481345,-0.6424935,-0.03333294,0.4325514,0.1643575,-0.6268613,-0.2012523,0.3322494,-0.4523262,-0.8533714,-0.2684604,0.9822333,-0.9336941,0.1912678,0.5165386,0.7276747,0.6256065,-0.3393031,-0.103422,-0.3473352,-0.4135975,-0.6878114,0.5149066,0.2373101,-0.1908108,0.9265435,0.6281383,-0.3761772,0.3867774,-0.8376329,0.9217203,0.09244645,-0.5569062,0.7311039,-0.4749016,0.6684561,-0.06341636,0.424849,0.4213736,0.8705065,-0.3340594,0.2295471,0.6247997,0.9468372,0.8740163,0.7910802,-0.06384933,0.2361542,-0.9230504,0.4346673,-0.8125632,0.5294902,0.2501116,-0.8182123,0.4782789,-0.690038,-0.3892545,-0.9219389,-0.9823034,0.08624732,0.9004743,-0.8974962,-0.7308228,-0.4329203,0.1085902,0.4918044,0.4931464,-0.736074,0.8819678,0.8401608,-0.7607856,-0.2755007,-0.4372686,0.6411223,-0.9768806,0.428719,0.3370373,-0.2485856,0.8192363,0.6295772,-0.3718601,0.08225453,-0.6366282,0.4270456,-0.5423279,-0.01406872,-0.5437236,0.2300502,0.738251,-0.576026,-0.1859394,-0.2962233,0.06593716,-0.6453149,0.5429986,0.01180851,-0.2588426,-0.8814394,0.7313473,0.6189175,0.606252,0.5642126,-0.7829821,0.8164356,0.3145628,0.254926,0.9191432,-0.888016,0.8216655,-0.3168088,-0.290393,0.9998581,-0.7669849,-0.3578357,0.01748168,0.3062949,-0.2981049,-0.8701987,-0.3321224,-0.2561101,-0.5265779,0.01769173,-0.08866394,0.03943145,0.966779,-0.2681843,0.6954091,-0.2076923,-0.4722286,-0.3744627,-0.2604917,-0.7781148,-0.4070266,-0.4845332,-0.5940502,-0.8413248,0.47369,-0.04391325,-0.341709,0.2866502,-0.8090127,-0.9843285,0.9066749,-0.03743255,0.4136827,-0.4616009,-0.7093065,0.7165077,0.8061123,0.2090918,0.08412349,0.2588696,0.05450165,-0.6201916,0.3867383,-0.616061,0.5620408,-0.6942472,0.07088673,0.4084227,0.6832767,0.984906,0.1457967,0.3503644,-0.2564744,0.877557,0.7935972,-0.9932976,0.2040592,0.6200938,0.6797371,0.9079535,-0.6755292,-0.5231786,-0.2568403,-0.4079484,-0.7482142,0.6918101,-0.3207098,0.07737911,0.9152775,0.1158553,0.6958351,0.6652665,0.5681381,-0.6984439,0.2199804,-0.4898366,-0.4603814,-0.8555562,-0.4284869,-0.5293136,0.2357816,-0.8544612,-0.4271725,-0.3508257,-0.9501448,0.4122434,-0.6169624,0.902766,0.4506166,-0.3443371,-0.3365287,0.01125681,-0.8882062,-0.4010941,-0.5120249,0.2415348,-0.1494945,0.006914735,-0.7190545,-0.06249678,-0.05664122,0.8553903,-0.3340799,-0.4246463,-0.6762693,-0.1930474,-0.09285247,-0.5906911,-0.2767001,0.141903,0.6236775,-0.5370476,0.3254468,0.2366656,-0.6035292,0.2174286,-0.9885566,0.7541392,0.3256326,0.6937523,0.05411422,0.2088488,-0.3795625,-0.5401046,-0.9510622,0.3894258,0.9713764,-0.7534895,-0.9672816,-0.530997,-0.9887912,-0.665432,-0.6669974,-0.2694916,0.4217718,0.1374387,-0.3328437,0.2805455,0.01985013,-0.1591228,0.8096766,0.7883542,0.3210626,0.719382,0.2710278,-0.01167071,0.2378398,0.6452663,0.4561112,-0.8435056,-0.3654033,-0.4527742,0.8986056,-0.9271801,-0.2855042,-0.6677713,-0.6219113,-0.868211,-0.8153317,-0.8362651,-0.9603412,-0.3469967,-0.6673245,0.7719088,0.08723795,0.04406488,-0.4342922,0.4847796,0.28232,-0.005567908,-0.759408,-0.232747,-0.2204429,-0.0637511,-0.002977014,0.3958588,-0.730588,0.7302902,-0.1806434,0.6586089,-0.1081969,0.6438301,0.05201685,0.3837993,-0.6754684,0.5183306,0.826966,0.007675529,-0.5467732,0.6522734,0.4263492,-0.7108562,0.7231376,0.2444226,0.3995354,0.7454522,-0.5915558,0.5639987,-0.7318699,0.644186,0.3751159,-0.3621548,-0.3210763,-0.1440097,0.9160593,-0.7971096,-0.1433178,-0.91134,0.05117667,0.6253362,0.4451337,0.9132049,0.05608523,0.294416,-0.7888041,0.5644021,-0.8319163,-0.4951786,0.3751121,0.02870357,-0.3037654,-0.9547021,-0.07775819,0.7046537,-0.5226867,-0.9910169,-0.8978622,-0.07154453,0.5775514,-0.9522784,-0.7930288,0.4486718,0.6148117,-0.4943305,0.2059621,-0.8477738,-0.2134174,0.8101752,-0.1154374,-0.2372452,-0.9617727,-0.7755606,0.1943592,0.3633077,0.07328236,0.7768798,0.5331511,-0.5097237,0.6854928,-0.6500466,-0.940917,0.3390017,-0.5922897,0.4972744,0.0227679,-0.3898274,-0.9723053,-0.6253788,-0.917613,-0.490698,0.2641606,-0.1873802,0.199823,-0.1167947,0.5620267,-0.8531718,0.2267026,-0.1726865,0.872304,-0.1402899,0.8208041,0.6389129,0.07609951,0.9878159,0.7421443,0.5466733,-0.7719679,-0.6656234,-0.9954078,-0.7226641,0.8181207,-0.9850473,-0.4674898,-0.2542995,0.4663408,0.6795814,-0.7293241,-0.9853432,-0.5229697,-0.4234308,-0.3099684,0.4581995,0.9166725,-0.5262609,0.06815946,0.09814036,-0.6280878,-0.3283569,0.1308357,-0.4287311,-0.05602539,0.3255358,-0.659539,0.1698276,-0.9393072,-0.1195151,0.05718291,-0.08702672,-0.8951833,0.04580557,-0.6664927,-0.9401143,-0.119171,-0.7767363,-0.1999365,-0.6089225,-0.6557424,-0.3175141,0.1162859,0.1568509,-0.9645293,0.163951,-0.7258508,0.06726778,0.5094473,-0.6134946,0.456604,-0.5058308,0.8491552,0.3691185,-0.1679,-0.1997963,-0.8249021,0.8833175,0.8032029,0.6646812,-0.6970172,-0.09449327,-0.7633493,-0.5465834,-0.5494258,0.2110482,0.2541797,0.6851227,0.9141116,0.904237,-0.558723,0.8310862,0.8307037,0.2855144,-0.03034222,0.2862103,-0.6385374,-0.6262853,0.4816279,0.8904927,0.1709429,0.0750407,-0.8178599,0.3275111,0.8518734,-0.8233767,0.7236152,-0.8537421,-0.1610397,-0.7668595,0.07073653,0.2883253,-0.6988485,-0.001954675,-0.09134352,0.1768831,-0.4191903,-0.2430683,-0.04440248,0.4657645,-0.4609379,0.5729957,-0.9704313,-0.9348333,-0.9775145,-0.2689117,-0.2775792,0.4337323,-0.8812544,0.2435561,-0.7064452,0.1638588,-0.3030926,-0.8353479,0.8484185,-0.253786,-0.02889407,0.9866719,-0.374395,0.7601173,0.5285294,-0.4025089,-0.2562941,-0.4542643,-0.5683496,-0.0308944,-0.5563748,-0.3992959,0.109733,0.6250679,-0.2403828,0.4648302,-0.9979339,-0.6925926,-0.5171049,0.02755654,0.6823218,0.3664205,-0.8872802,-0.3626086,-0.6156683,0.9266315,-0.636847,-0.2396151,-0.1120814,0.1624948,0.6647506,-0.1096781,-0.08931267,-0.6509159,-0.2842125,0.6034145,-0.9961627,-0.9941401,-0.3007554,-0.1970063,0.5363407,0.6592252,0.2928336,-0.4812492,-0.6300485,0.9379699,-0.6277087,-0.9145586,-0.3453473,0.5109529,0.6642029,0.7455842,0.5607486,0.2688062,-0.2480131,0.7017055,0.7816548,-0.06718004,-0.4018117,0.2335838,0.3848021,0.4562354,0.4485624,0.6914217,-0.1576723,0.7927544,0.5640295,-0.8711917,-0.214872,0.4835684,0.3930902,0.6689293,0.8499701,0.859767,-0.2316357,-0.2949744,0.1392738,0.7879848,-0.131898,-0.5811887,0.848465,-0.1468641,-0.8424656,-0.7210927,0.7496991,-0.2398497,-0.2913908,0.9791489,0.3735862,-0.6454213,0.5990252,0.1283749,-0.7503853,-0.7963514,0.310883,0.4296629,-0.8156593,0.3783665,0.01832378,-0.02821362,-0.5712228,-0.2485098,0.8224394,-0.9485991,-0.2263814,0.7915013,0.5273075,-0.1000267,-0.4607724,0.9350979,-0.5581522,0.4215701,-0.01625955,-0.7947602,0.5733023,-0.3476344,-0.8843179,-0.2434794,0.9435787,0.4497063,-0.4417034,-0.7411411,0.6591065,-0.5313766,0.1592435,-0.2186676,-0.9873557,0.8467689,-0.445084,-0.2982489,0.4064014,-0.5716071,-0.4416,-0.7772417,-0.1664881,-0.03688729,0.9584286,0.4746327,-0.4472982,-0.8238993,0.1861554,-0.4161416,-0.2828912,-0.6250021,-0.9328454,-0.5049405,0.4722719,-0.08543408,0.4173338,-0.1707674,0.604387,0.8156364,0.6979883,0.3078203,-0.9806848,0.3357546,0.856354,0.2131695,-0.7609699,-0.8184781,-0.05716932,0.1416844,-0.7573042,0.0005422831,0.9049447,-0.1891998,0.6252623,-0.2326366,-0.2163094,0.3667526,-0.445685,0.4052529,0.1826473,-0.6147959,-0.3668901,-0.3123771,0.1501464,-0.5096815,-0.06974256,-0.3495713,-0.7441976,0.6834671,0.8822999,-0.8664498,0.4554574,0.3279638,0.5247538,-0.455299,0.8397491,-0.1995379,0.4435124,-0.7663746,-0.5724483,-0.4727589,0.7267938,0.9568388,-0.2413903,0.3427873,0.7161653,-0.4508647,0.9544568,-0.2116565,0.5048778,0.4256165,0.2408324,0.935333,0.01332176,-0.02806914,-0.6616535,-0.4210283,0.5511928,-0.7340643,-0.4091231,0.3965695,0.4775534,0.1254839,0.8922861,0.6580191,-0.5923305,0.3910496,0.3448958,-0.2918874,0.3194811,0.2454566,-0.2911075,-0.9451632,0.4172306,-0.803045,0.2878304,-0.08738267,0.2534711,-0.4895648,0.7536182,0.6991017,0.5542853,-0.4619976,0.5993288,-0.6752837,-0.1597968,0.3433547,-0.7477558,0.1096972,0.4818361,0.7896917,-0.3885311,-0.7043135,0.6632469,-0.864316,-0.2290443,-0.03248107,0.6557362,0.5994067,0.2760639,-0.725642,0.6956301,0.08979809,0.5809011,-0.8838649,-0.8558323,-0.528358,-0.6589069,0.887444,-0.922657,0.3153369,-0.7882245,-0.2193681,0.8049731,-0.1195143,-0.6500669,-0.008355737,-0.6897564,-0.305869,0.6146235,0.6554987,-0.184755,0.4719279,-0.5727396,-0.5269063,0.07756484,0.01047742,0.09775984,0.5690026,0.2410637,0.2975662,0.7906258,-0.05377996,0.5074897,0.8270092,-0.2316753,-0.7801795,0.3506689,-0.5757055,0.1574706,0.08206809,-0.08273518,-0.9843321,0.01906765,0.5379074,0.09181654,-0.01100314,0.3648679,0.2365371,-0.6155167,0.02194178,0.138456,0.4494114,0.7897761,-0.7199974,0.995266,-0.5149586,-0.840045,0.9853463,-0.5520048,0.9327455,-0.3618408,-0.9218128,0.9041438,-0.08792722,-0.4793357,0.5069084,0.6147759,-0.8841023,0.07160079,-0.5163951,-0.4062799,0.1742605,0.7667537,0.03870142,0.6692104,-0.4727308,0.9486895,0.9512627,-0.7137454,-0.9911587,0.3184435,-0.474758,0.7140517,0.6482842,-0.9802382,0.3528514,-0.8438382,-0.9149683,0.5402839,0.0006088018,-0.2431663,0.4266567,-0.1015249,0.4728332,0.8644717,-0.8973598,0.3409946,-0.4232119,0.3954184,-0.7171333,0.5916255,-0.6785219,0.1191508,0.5320346,-0.9952211,0.7035661,-0.2937065,0.6001735,-0.3790005,0.1743664,0.1012605,0.06006205,-0.991544,0.09655321,0.09591973,0.4389968,-0.5616913,0.4981072,0.7796288,0.3417368,-0.8261101,-0.766012,-0.786763,0.5751801,0.9451787,0.368469,0.4521303,0.5274944,-0.8548319,-0.1744148,-0.366114,-0.3428322,-0.01563489,0.3471212,0.03406942,0.06456006,-0.09775388,0.03376448,0.8316486,0.4975479,-0.4280609,0.3549573,-0.3140677,-0.1127378,0.2513151,0.1756057,-0.8080275,0.1068665,0.2569122,-0.2336024,0.2612686,0.61184,-0.3833047,-0.4461001,0.2061664,0.6516612,0.6666515,-0.09124863,-0.5782514,-0.7101293,0.7478895,-0.09599817,-0.9659746,-0.2003905,0.300019,0.2008091,0.1852638,-0.205392,-0.1687061,0.5162237,0.7298667,0.7621236,0.3612196,-0.5576091,0.07406676,-0.7557292,-0.6738429,-0.8427722,0.5170853,0.6671009,0.8054659,0.9878285,-0.06203282,-0.7900407,0.8745775,0.01320422,0.1477665,0.7140203,-0.009461999,0.5866375,-0.5999985,-0.7837145,-0.9382677,-0.4230729,-0.6777256,-0.7781219,0.4169984,0.7795103,0.7481868,-0.7602036,0.1558734,-0.8749831,-0.4085594,0.2156166,0.04062521,0.5655086,-0.9564948,0.4058573,0.347496,-0.4969879,0.3972876,0.4222636,-0.7581341,0.5801692,0.5417528,-0.1134502,-0.5807033,-0.5235858,0.9653974,-0.2741796,0.7985847,-0.389613,0.1398906,-0.04562247,0.6503477,-0.8281085,-0.1156617,-0.262339,0.2729514,0.5057127,0.4893754,-0.2842818,0.2648244,-0.9689996,-0.1869193,0.6415768,-0.3556007,-0.4092258,0.08126056,-0.4682883,-0.7223263,-0.8105288,-0.7932858,-0.8961108,0.04776132,-0.5493112,0.004586816,-0.1141833,-0.6995175,0.9389307,-0.1575114,0.4570003,-0.7562997,-0.5729771,-0.1172918,0.2041284,0.4314289,0.1356982,0.9658504,-0.1790644,0.6184864,-0.8334169,0.9920158,0.4478381,-0.4481186,0.6214755,0.2622151,-0.02346289,-0.09810221,0.8786564,0.5698469,-0.3828756,0.2530341,0.5629838,-0.02868998,-0.825161,-0.9546332,-0.00276792,-0.912642,-0.8092878,-0.3647856,-0.7284822,-0.4313029,0.201944,-0.3888537,-0.6560569,-0.6141543,-0.2131852,0.3866343,0.4752066,-0.2222081,0.8135991,-0.9223473,0.8727241,-0.6146269,-0.6193821,0.5301392,-0.9034729,-0.8215766,0.1643189,-0.7811174,0.3247509,-0.9193165,0.3880587,-0.5279996,-0.2449754,0.1704696,0.324553,0.6214621,-0.778537,-0.2889298,0.5775173,-0.5913622,0.4206231,0.8860891,0.239554,0.2758,0.1126095,-0.8477569,-0.3772768,0.2368973,-0.9991629,-0.07631576,-0.04343116,-0.8887181,-0.9411976,-0.4266611,0.727597,0.1572822,0.1187457,-0.2402219,0.5523701,0.6618152,0.4529424,-0.1430947,0.9300647,-0.0931865,0.825779,-0.7693787,-0.4937578,0.1528426,0.6141884,0.1803907,0.9821932,-0.8923349,-0.9093225,0.2565291,-0.9432809,0.5728383,0.9038904,0.5688279,-0.404791,-0.9374571,-0.4256181,-0.6002035,-0.05235088,-0.5621271,-0.6005578,-0.8653297,-0.3533648,-0.7699127,-0.8816109,0.460238,0.6080475,-0.7096527,0.603301,-0.8864276,0.8359375,-0.5352387,-0.9304512,-0.2547828,0.9327989,0.4033914,0.474206,-0.2452494,0.7244511,0.3293872,-0.7608943,-0.4627522,-0.6547382,0.603066,-0.6223857,-0.2602674,0.659714,0.3754072,0.7395937,-0.07450044,0.6899059,0.9142509,-0.9825954,-0.01015699,0.8357992,0.06561959,-0.5774179,0.8053546,-0.05959451,0.7296653,0.6453636,0.2900944,-0.3882295,0.7556124,-0.4368922,0.5149713,0.8627594,0.09141433,0.02457821,0.2886953,0.7591333,-0.5533257,0.5277193,-0.6888716,0.3852341,0.5705087,0.5885882,-0.6698303,-0.7019849,0.9737279,-0.8718815,0.7820778,0.09295905,0.9490268,0.443007,0.002128482,-0.7207506,-0.9036078,-0.2231697,-0.05958879,-0.7988405,-0.08613694,0.4364727,0.02476013,-0.127493,-0.1921822,-0.3411375,0.8364778,0.9763243,-0.3333086,0.4394264,-0.3208441,-0.3150529,-0.5606062,0.09767425,0.2960114,0.3560865,0.3602076,0.4810672,0.7449765,-0.07728589,-0.1139847,-0.7106769,0.1976215,-0.2258872,-0.4069241,0.7725294,0.40645,-0.1182934,-0.5367124,-0.940969,-0.1532267,-0.8119857,0.01718628,-0.8243127,-0.5643404,0.03709805,0.3432701,-0.6553748,-0.6842494,0.5744231,-0.5681741,-0.2441376,0.1154429,-0.06841695,-0.3365144,-0.6041446,-0.1292917,0.5551949,0.8690908,0.3115771,-0.04936898,-0.02291191,-0.1033217,0.3650203,-0.9358759,-0.6006625,0.6357265,0.1054341,0.0003832579,0.766911,0.5276992,-0.1920184,0.2103845,0.2136542,0.3850012,0.5432651,0.06656444,0.7240236,0.3971245,-0.6061292,-0.4140455,0.1207172,-0.08323348,0.925947,-0.4320713,0.9347267,0.6698263,-0.1907119,0.6166956,-0.6682401,0.2513876,-0.5749252,0.79092,-0.9131122,-0.3261718,-0.4564391,0.7215273,0.442934,-0.9632962,0.6085508,0.09139836,-0.3644673,-0.5481622,-0.07631648,0.4932063,0.6874528,-0.897562,-0.5653622,0.07215869,-0.8712087,0.7428586,0.2204834,-0.1441723,-0.1191252,0.3778927,-0.6996722,0.615653,-0.2004889,-0.4278959,0.9052057,0.7038801,-0.7689974,0.005855203,-0.2634457,-0.4477299,0.9411604,-0.4422833,0.6800551,-0.7260888,0.1136068,-0.9869151,-0.8479695,-0.02186477,-0.8734598,-0.1567577,0.9604979,-0.07557714,-0.4443561,-0.7018163,0.05545032,0.4177608,0.8705769,-0.9903293,-0.9873281,-0.117864,0.7296035,0.8485234,0.0479995,0.3466449,-0.6342118,-0.5456858,-0.4421715,0.05899417,0.9217575,0.06256998,0.4877892,0.08538878,-0.7954671,0.2187032,0.4187675,0.7385323,-0.6969624,0.5764546,0.4321849,0.9576337,-0.8624129,0.873837,-0.4687055,-0.9055371,-0.9141166,-0.3667413,0.3278408,0.5514908,-0.6994252,0.4744291,-0.1401473,-0.02338827,0.7767594,0.1728238,0.5470376,-0.9947634,0.3802075,-0.3103672,0.8828738,-0.1717716,0.9800446,-0.5522234,-0.2136892,0.4289064,0.376353,0.9153047,-0.8407991,-0.9218276,-0.7617579,0.4477425,-0.7532649,0.5532179,0.1849374,0.5544353,-0.2117237,0.7202177,-0.7946138,-0.3827771,-0.6142478,0.004269958,-0.7089303,-0.9262156,0.06813037,0.05224812,0.4754937,-0.7412658,0.6018689,0.5947266,-0.3478035,0.3998418,0.6935112,-0.8575559,-0.2610198,-0.1772653,0.5912631,0.9270728,-0.3756446,-0.4432403,0.3228855,-0.4377843,0.1182064,-0.3040456,0.9693727,0.2459639,-0.7673588,0.6585162,-0.5927975,-0.4692446,-0.495484,0.1661481,0.4235559,0.8640556,-0.1873373,-0.03572595,-0.7042274,0.8800046,-0.6294217,0.2317828,-0.2458867,0.6408184,0.4597611,-0.0798341,0.5505011,-0.9126716,-0.6392365,-0.4735447,-0.1410328,-0.8582392,-0.5902071,-0.4355277,0.4017916,-0.1434208,-0.4096931,-0.02638495,-0.9918156,0.9838917,0.9862514,0.0801791,-0.3396286,0.5260184,-0.8462391,-0.8264198,0.3014002,-0.4358834,0.7683184,-0.5547748,-0.817137,-0.6385596,-0.4916424,-0.05375636,0.1283938,-0.9822135,-0.3093997,-0.1813356,0.5778627,0.03284109,0.5989723,0.8636532,0.6875265,0.3676815,-0.8611813,0.2551861,0.3881466,0.4599724,-0.08912051,0.6766021,-0.7919552,0.6726978,0.7561443,-0.4819077,0.1895896,-0.4858195,-0.03884304,0.1989127,-0.7790384,0.8987427,0.7337868,0.4014475,0.2779286,-0.99336,0.4795361,-0.596395,0.8157167,0.5149376,-0.03590953,-0.3652405,0.2404622,0.6351047,0.1082221,-0.505899,0.1707531,0.3359301,0.4421799,0.4356742,-0.1991285,0.750356,0.2204813,0.4542191,-0.1533214,0.1382512,-0.1948136,0.8550265,-0.4604937,0.6330826,0.4612892,-0.6788201,0.1516975,0.4540405,-0.5161543,0.9095252,-0.1608914,0.1398689,-0.6793172,-0.5587556,-0.116773,0.4894385,0.31233,-0.6338942,-0.9979978,0.4467447,-0.001514077,-0.6674728,0.9938574,-0.9099498,0.4483633,0.2137259,-0.6365259,-0.09998,0.229618,-0.8777745,0.1308285,-0.09713066,0.9587617,0.355839,0.5047982,-0.7021592,-0.06145203,-0.7713401,0.9932733,0.5614371,0.7349732,-0.8230131,0.7329617,0.9868505,-0.8915131,-0.7310948,-0.9644022,-0.8334014,-0.4556538,-0.8808382,-0.9189289,-0.7707067,-0.1880857,-0.2560903,-0.5532703,0.2843053,-0.149732,0.5953467,0.7725518,0.2811494,-0.6684866,-0.5724289,0.268935,-0.4273814,0.3910544,-0.153972,-0.3169786,-0.394348,0.9061921,-0.04910576,0.681401,0.7733412,-0.6877592,0.6216214,-0.7845113,-0.5327239,-0.1678017,0.0087322,0.9927897,-0.3576068,0.4454052,0.127647,0.1784507,0.8505571,-0.304273,-0.03476012,-0.9871802,-0.08521163,0.2166654,-0.3753649,-0.7439237,-0.2391232,-0.9836617,0.2692492,0.5256999,-0.01560271,-0.9404931,0.2408587,0.8766637,-0.2287301,-0.1272608,0.8825772,0.2307774,-0.1454352,-0.08227003,0.5612371,0.5724409,0.300462,-0.7824852,-0.08798206,-0.5326929,0.9049928,-0.09597051,0.3726771,0.008303046,0.6785917,-0.669055,0.1085454,0.994518,-0.8188069,0.6560268,0.7424946,-0.976012,-0.4760987,0.2708573,-0.7931333,-0.7614222,-0.1309594,-0.688257,0.3251038,-0.9091239,0.4281731,-0.1740681,0.669848,0.5283227,0.5654724,0.1582977,-0.4195563,0.5984001,0.7124727,0.1801571,-0.3394891,0.9999368,-0.03997767,0.953495,-0.341334,-0.7751925,0.5806165,0.04833877,0.3144414,0.1886233,0.5626204,0.1437548,-0.8126621,0.7977724,0.8226824,0.8106287,-0.1215566,0.8159409,-0.2911388,-0.4687618,0.4360542,0.1021987,0.9890628,0.1720058,0.6255012,-0.8845689,0.2708187,-0.7930193,-0.988991,-0.0776571,-0.6014709,0.2990322,-0.8777368,-0.7654755,0.4301198,-0.1203259,0.4573495,0.7939844,0.1172813,0.9022367,-0.05100119,-0.1704868,0.9471817,0.5900173,-0.2176977,-0.8516607,0.8143873,-0.351101,-0.8310335,-0.861182,0.7059858,0.4424717,0.7939744,-0.3971978,-0.08024681,0.09321439,0.2270411,0.4595745,0.9465046,-0.4485489,0.27509,0.1833984,0.4439085,-0.9590204,-0.1702977,0.9675119,0.1625386,0.03539479,0.1649097,-0.07152879,-0.8646781,-0.4296912,0.08359706,-0.9227967,-0.9699523,-0.8702991,-0.5041606,-0.6804183,-0.7090924,-0.8743825,-0.6988034,-0.3254508,-0.6468203,-0.02004659,0.6741617,-0.4782697,0.63061,0.3598545,0.8562596,0.922075,-0.9186544,0.540077,-0.7046783,0.7521548,0.6261761,-0.8971558,0.1667911,0.4844544,-0.3708974,0.9987223,-0.4636115,0.3654058,0.893486,-0.9077425,0.03406894,0.2340804,0.5183897,0.08741271,-0.7271965,0.1629065,0.2987442,0.9573693,-0.3369633,0.8486238,0.8519616,0.3793232,-0.3846935,-0.5473168,0.2014352,-0.1026009,0.4023523,-0.4627541,0.9982939,-0.1680866,-0.4655696,-0.4595512,-0.7275157,0.6657221,-0.4778448,0.1531674,0.3705146,-0.8511496,-0.9233711,0.6153893,-0.09147871,-0.380309,-0.3432375,-0.1441334,-0.518889,-0.9266474,0.1237787,0.5953143,0.823946,-0.9930553,0.3581967,-0.5028484,-0.6097858,0.5195525,0.4931352,0.7027643,-0.7672749,0.6111009,-0.1702679,0.08447492,-0.9936309,-0.300707,-0.9437306,-0.9735782,-0.9947014,-0.3350693,0.4310498,0.8444064,-0.3839532,0.03780067,-0.4921447,0.1987101,-0.4690136,-0.7656028,-0.9895401,0.8466136,0.1217591,0.1048499,0.09948933,-0.26258,-0.658776,0.2638669,-0.6284995,0.5828109,0.684238,-0.8444335,0.1304644,0.7213881,-0.2632033,0.07096064,0.671484,0.5267904,-0.0937978,0.9145899,0.3511004,0.7030051,0.1388365,0.4342575,-0.7599187,0.6634061,-0.8301268,-0.7586215,-0.8950171,0.8886964,-0.7750652,-0.1798919,0.7782912,0.1089846,-0.5153663,0.05580604,0.7091138,-0.2294942,0.6812572,-0.1360501,-0.7003877,-0.2026757,0.1425542,-0.522382,-0.4061083,-0.7895827,-0.6555824,-0.3859006,-0.008482814,0.4531198,-0.03582013,0.9781222,-0.8154478,-0.9401941,-0.6402109,-0.2133292,-0.5655189,-0.2116696,-0.9984496,0.4085677,-0.8631821,0.4715071,0.2703252,-0.5019567,-0.8194571,0.4811966,-0.08225524,0.1335226,-0.7062974,0.919946,-0.1611813,-0.1849984,-0.4737874,-0.6316376,0.8963697,-0.2432207,-0.8165853,-0.8486013,0.4222114,-0.06764519,0.4903126,0.1699523,0.6736925,0.8563035,0.904006,0.4772656,0.6903963,0.3361533,0.8387523,-0.4447261,0.04183495,-0.7159557,-0.7593179,-0.5339751,-0.1541368,0.3314238,-0.7840369,-0.7609005,0.8319654,0.2376307,-0.4094647,-0.4116396,0.1383163,0.2054464,0.753592,0.2112974,0.8312068,0.5972431,-0.9237723,0.6598372,0.5636313,0.341656,-0.5866187,-0.737689,0.2420682,0.1266729,0.9216342,0.168852,0.1609067,0.5317705,0.4070752,-0.2858127,0.7509432,0.4146397,-0.9592359,-0.5645492,-0.6588256,0.3971229,0.8696508,-0.06416857,0.2795701,-0.2089645,0.685843,0.4889467,-0.8975947,0.7281275,0.4599221,-0.4293755,0.3768821,0.8628263,-0.04555094,0.5451987,0.7421114,-0.8332899,0.7604284,0.7554433,0.5112062,0.01351559,-0.2959083,-0.5233948,0.09749639,-0.5650704,-0.5745893,0.0888828,0.6910846,0.08311045,0.388521,0.6207743,0.726454,0.008185744,-0.1365944,0.09890211,0.6167567,-0.1105784,0.2157277,-0.2078589,-0.0002228022,-0.5697486,-0.4972523,0.5880561,-0.5735085,-0.1251842,0.3936853,0.1215554,-0.06636441,0.166134,0.8019009,0.5069032,0.7015128,-0.2262233,0.8443573,0.1530331,-0.8613632,0.613209,-0.1547126,0.5627084,0.4895651,-0.8211761,0.2502685,0.4174716,0.1697339,0.1951519,0.0571121,0.9246969,0.7191765,0.0973829,-0.1769265,-0.3394126,0.8581793,-0.3993398,-0.3527361,-0.8330841,0.219174,0.9753273,-0.9223378,0.5422714,0.8324122,-0.3888174,0.8107963,-0.7796302,-0.4934503,0.5197232,-0.8079133,-0.05692279,-0.1679696,-0.03667581,0.2268656,0.580178,0.4241016,-0.5190136,-0.8664694,-0.7766263,-0.5496194,0.06393206,0.4133089,-0.5868816,0.7654874,-0.4652084,0.8068926,0.6720319,0.1647283,-0.007954955,0.7580945,0.2732918,-0.4581672,-0.1439878,0.101245,-0.768764,0.03373396,0.3077381,-0.9570692,-0.6090221,-0.7934213,-0.273122,0.5275993,0.1904129,-0.2897393,0.5020366,-0.4016253,0.5710013,-0.01335752,-0.4294351,-0.6238272,-0.8846092,-0.04872406,-0.1100076,-0.6126256,0.7604048,0.1848346,0.8385959,-0.1987952,-0.4450408,-0.3659247,-0.06351936,-0.09890497,-0.8328998,-0.7700064,0.6235054,-0.02456081,-0.2830113,0.4490399,0.4223425,-0.407848,-0.1546084,-0.7251015,-0.9116035,-0.3858067,0.3598647,0.1117514,0.7124946,0.719902,-0.1062659,-0.1472584,0.260478,-0.4901382,0.9866188,-0.4997138,-0.3601276,-0.8515656,0.2584391,0.4845722,-0.4606842,-0.5387495,-0.608592,-0.2655731,0.8779702,-0.3512884,-0.7300551,-0.004950643,-0.3640779,-0.488258,-0.9367001,-0.001466393,-0.4774834,0.5403872,0.1825272,-0.4602588,-0.1160477,-0.1757272,0.06893814,0.2730336,0.9947937,0.7239668,-0.852354,-0.05384862,0.1883179,0.9818473,0.1475426,-0.01777756,0.5206912,-0.212097,0.8031213,-0.2245864,0.32816,-0.7158847,0.07250011,0.7222464,-0.5007896,0.9721129,-0.9379244,0.1991602,-0.776541,-0.8768201,0.1586753,0.647192,0.1795005,-0.5787437,0.03520262,0.3382592,-0.7796481,-0.8949106,-0.6776743,-0.08224905,-0.9365456,0.3147423,-0.5943496,-0.4144641,-0.2967767,-0.1769699,0.07124817,0.8016629,-0.1008707,-0.3857728,-0.7763731,0.9693773,0.2621596,0.893085,-0.4586931,0.3543651,0.4428427,-0.02022326,-0.6611366,0.9373176,0.875402,0.2334996,0.9795938,-0.7059445,0.455231,-0.8778331,-0.1595491,0.820224,-0.5622237,0.8810997,-0.0493058,0.2866857,0.5995963,0.01860607,0.624923,-0.0490073,0.144678,-0.6157136,0.7668002,0.1027042,-0.02890241,0.4574873,-0.07562459,-0.0879513,-0.9555166,0.7609658,-0.3940564,-0.6269641,0.2710207,-0.1046578,-0.03554499,-0.1933907,0.7652445,-0.1371406,0.6325741,-0.6047978,0.3204978,0.7888935,0.8468249,-0.9323623,0.6541982,-0.03263175,-0.1060566,0.2926788,0.1871465,0.2671964,0.761981,0.05524027,-0.3630775,0.9957323,0.04502785,-0.9289694,0.2546251,0.6461856,-0.1702505,-0.9546731,-0.4763199,0.5505514,-0.9889834,0.6156173,-0.007653117,-0.03259957,-0.9993057,-0.420041,0.4897199,0.7401619,-0.8898473,-0.09840882,-0.2105166,-0.9728324,-0.1219424,0.3969405,-0.3692209,-0.8906925,0.9795516,-0.937752,-0.06071436,-0.5364261,-0.3948978,0.2024006,-0.2478877,-0.9474366,-0.8767197,0.5450387,-0.965976,0.00933516,-0.09538901,-0.6766307,0.9993722,0.1231357,0.05665672,0.8935595,0.2069379,-0.6138909,0.8560517,0.156963,0.8632829,0.6541679,-0.0964781,0.6210539,-0.2401224,0.3266058,0.9998972,0.2595749,0.07311594,0.03890359,0.8359807,-0.2444061,0.5572674,0.731369,-0.006686807,-0.2716798,-0.9354897,0.1802937,-0.6151364,0.422142,-0.5444634,0.8321955,0.6832838,-0.7776065,0.1114789,0.5016112,0.6058903,-0.01299155,0.02497852,-0.4046842,-0.262818,0.317904,-0.5213523,0.4904234,-0.4311036,0.1465927,-0.2806281,-0.4068772,0.6258428,-0.6701653,-0.9466753,0.7705727,0.2134298,0.2625115,-0.3035001,-0.8077927,-0.948993,-0.1974095,0.301564,-0.02469194,0.3232906,0.8996198,0.6311285,0.1308812,0.9580345,0.5526569,0.9785571,-0.3783096,-0.9361339,0.03979528,0.2533712,-0.8641107,0.2109593,0.9020884,0.9171631,0.9727688,0.8334763,-0.4724888,0.2028283,-0.9078591,0.6334648,-0.2719666,-0.4704143,0.5425317,0.9211276,0.8016019,0.7799034,-0.464239,0.3562567,0.8203969,0.5572145,0.2079955,-0.820765,-0.3264979,0.1985143,-0.9346752,0.8545308,0.6412532,-0.6653421,0.2492357,-0.1056105,-0.5736206,-0.004778981,0.9119594,-0.8072982,0.7771456,-0.4189903,0.6816463,-0.9355845,-0.5213258,-0.7755258,-0.9033165,-0.2840093,-0.3177425,-0.7525356,0.7090998,-0.1041828,-0.7053089,-0.6012902,-0.04569423,-0.4328679,0.3077173,-0.9964571,-0.3003958,-0.5185859,-0.208438,0.5896275,-0.7357004,0.1198326,-0.7268348,-0.8144171,-0.6863685,0.446141,0.2808151,0.3469844,0.9441397,0.864193,0.7618356,-0.3843952,0.5516946,0.4988949,-0.2406138,-0.3066162,0.1960059,0.2730589,0.6536121,0.6900129,-0.4411911,-0.3758622,0.7556858,0.1341373,0.1996306,0.577055,0.3912427,0.0521363,0.4464717,0.7155955,-0.8571172,-0.07721579,-0.3641657,0.3110039,0.0472554,0.5068569,0.7248688,-0.9668355,0.2143089,0.6034274,-0.08159125,-0.1430119,0.8504293,0.0083915,-0.6414888,-0.3921775,0.1855813,-0.4524547,-0.02837551,0.6376569,0.9285023,0.8728652,-0.4064723,0.2545838,0.6424897,0.2093788,-0.1786824,0.1255676,0.2181741,-0.1913418,0.8321192,-0.6536036,-0.1068345,-0.4118193,-0.1088632,0.7119536,-0.2787663,0.3762989,0.2638593,0.8472524,0.8819489,-0.3182575,0.8687677,-0.4055151,-0.3149849,0.1496185,0.003533721,0.3617165,-0.9663527,0.04932082,-0.4577652,0.0005303621,-0.6919043,0.5239966,0.2473644,0.1836528,-0.7190549,-0.2726351,-0.2237791,-0.335761,-0.7084341,0.1370052,-0.8842258,-0.39982,0.2524128,0.4862499,-0.6882718,0.6051996,-0.7843006,-0.07294405,0.06859648,-0.06581104,0.4971437,0.7896562,-0.6372564,0.5641475,-0.7878046,0.3513496,-0.7593153,0.3234198,0.600986,0.8234007,0.4994812,-0.1584831,0.05663192,-0.2342762,-0.9538538,0.05553877,0.1166118,0.08863103,-0.7419708,0.7371616,0.2757194,-0.7318168,-0.3770691,-0.2217768,0.5950277,0.8381059,0.5378306,0.06582201,0.7830946,-0.05620849,0.3940392,-0.4832686,0.6847396,0.7815697,0.9098563,0.6642723,-0.3655981,-0.5118749,0.969285,0.6424599,0.3786788,-0.1735693,0.4740219,0.1822382,-0.03863776,-0.5933104,0.0592922,0.2538676,-0.2264835,0.8673387,0.7706497,0.1908573,-0.8925979,0.1009239,-0.3463997,-0.2881635,-0.9952617,-0.538101,-0.641783,-0.5800729,-0.5741241,-0.793381,0.421916,0.4588437,-0.126474,0.1402146,-0.1814166,-0.8741078,-0.4198192,0.01510298,0.1321024,0.9201479,0.2669728,0.5003769,-0.4147018,-0.126351,0.9951398,0.0866729,-0.4400252,0.322628,0.1964523,-0.1505312,-0.45991,0.7292264,-0.4358367,0.586242,0.9855106,-0.435063,0.8243995,-0.7664862,-0.1351217,0.2347625,0.595423,0.07462466,-0.5203226,0.970618,0.443665,-0.8762176,0.07195485,-0.6906121,-0.1506056,0.8475235,-0.5486963,0.9036322,0.2435812,-0.7388983,0.8298805,0.9269671,-0.8029294,-0.9414575,0.5888293,0.4592929,0.4995737,-0.9226148,0.9815202,0.7767758,0.5039394,-0.9277012,-0.1053857,-0.1534797,-0.7379055,-0.8324094,-0.8945377,0.3176587,-0.7596457,0.8897378,0.7034256,0.6410158,-0.01906526,-0.6655529,0.07422459,0.2767429,0.8194504,0.9775918,-0.7524424,-0.01972878,-0.5419834,0.1296457,0.6617987,0.9163756,0.6384127,0.1853532,0.991333,0.6905785,-0.9787412,0.5652807,0.7630434,-0.1251642,0.448787,-0.001528859,0.1699671,-0.01978457,0.484283,0.4375679,-0.6036365,0.8791723,-0.2818049,-0.5582373,-0.246044,-0.404982,-0.4196864,0.5998886,-0.9372079,-0.2706956,-0.009437919,-0.04980648,-0.6139152,-0.3639809,0.502888,-0.4627045,-0.2171403,0.5623922,-0.04171765,0.2643015,0.006176114,0.7540824,0.9594557,0.3531787,0.5316398,0.9243608,-0.01104009,0.1337963,-0.7052565,-0.7416782,0.7007124,0.8115189,-0.8761225,0.8429785,-0.9489207,0.8796632,0.1669883,0.2024921,0.7122827,0.4445024,-0.7955024,0.3047047,-0.006950974,0.5375211,-0.3867744,0.106486,0.6402357,-0.419629,-0.2278198,-0.9034355,0.09542024,0.3403652,0.1005846,-0.8863301,0.1517619,-0.9348958,-0.9197557,-0.1459907,0.73962,-0.2815062,-0.5294161,0.2731874,0.06365216,0.5764623,0.5845129,0.1052815,0.1079873,-0.9398611,0.1220146,-0.2314159,-0.0729121,0.4192564,-0.8510673,-0.1287593,0.9808629,0.7692342,-0.2016817,0.5423505,0.1731547,-0.9203274,0.8624704,-0.01276672,0.9831505,-0.8375404,-0.0233041,0.5834975,0.8430946,0.9417982,-0.8105798,-0.08806479,0.04606688,0.1505147,-0.3757364,0.1933433,0.04617751,0.4966526,0.138954,-0.1893533,-0.2362543,0.7280395,0.4443007,-0.2697667,-0.4007696,-0.9454796,0.6249983,-0.2320071,-0.1514488,-0.6900105,-0.4933556,-0.4513067,-0.2372879,-0.4178697,0.5869095,-0.2326926,0.3173161,-0.1442879,0.6202848,0.9419897,0.3222599,-0.3510958,0.2450742,0.03396285,-0.5988128,0.02375114,-0.5411911,-0.9331412,0.529489,-0.7409363,0.7849638,-0.3266991,-0.809845,0.8300331,-0.2513391,0.4858415,-0.8606451,-0.9314513,0.524811,-0.9573429,-0.6310768,-0.3711213,0.6789954,0.2066168,-0.3853894,-0.1976758,-0.2228636,-0.1220704,0.7712493,-0.3625845,-0.8997808,0.9285741,0.4147208,0.8188071,0.7222891,0.918817,0.1415671,-0.7101071,-0.38597,-0.9893134,-0.4688052,-0.9089534,-0.4927534,-0.1625038,-0.6180308,-0.7576358,0.3781204,-0.484254,-0.1938177,-0.9978058,-0.6764793,-0.3863775,0.08984983,0.9826391,-0.5876231,0.118888,0.2855079,-0.5352893,0.8982165,-0.9281085,0.5427132,0.3973379,0.7506247,-0.9586039,-0.2845746,-0.5190365,0.04257739,-0.4803954,0.8802812,-0.9526203,-0.1545569,0.6704881,-0.4630021,-0.6219306,-0.5678482,0.005774379,-0.3484176,-0.2296799,-0.7552974,0.8986204,0.9329462,0.238818,0.9153333,-0.6857288,0.5384252,-0.8673215,0.6582618,0.4514122,0.2145406,0.1215986,0.6596813,-0.6573884,0.6499748,-0.08720767,0.6385479,-0.3043362,-0.04191649,-0.4016746,-0.1618367,-0.08266199,-0.06011617,0.4866607,0.2609954,-0.3155233,0.07865822,0.270612,-0.4105986,0.2355124,0.5308096,0.2784708,0.9455194,-0.7533925,0.3799777,-0.8763988,0.3915317,-0.509877,-0.7862022,0.5647621,-0.4401053,-0.5468082,0.61199,0.01159251,0.8434384,0.916177,-0.9825304,-0.1956412,-0.5854754,-0.5166702,-0.7059796,-0.888519,-0.6311066,-0.9910374,0.8838534,0.3313711,-0.7350724,0.2067825,0.3310907,-0.709568,-0.01815927,-0.7341163,0.3335874,0.6162658,-0.9458575,-0.6058073,-0.5843947,0.5804861,-0.8604202,0.6972945,-0.7132483,-0.7683923,-0.9098966,-0.7147107,0.7566543,0.5389671,0.5013795,-0.9579854,0.1781563,-0.7128682,-0.1111535,-0.2086328,0.4278157,0.483732,0.2470638,-0.1724097,0.3971505,-0.3476547,-0.3424379,-0.3352472,0.8931978,-0.790659,0.9456131,0.8294013,0.5650859,-0.9731686,0.5554173,-0.04534829,-0.1332825,0.4487901,-0.5210166,0.716121,0.768441,-0.8154864,-0.3888069,0.998349,0.5527208,-0.08659732,-0.234723,0.9822569,-0.8023276,-0.6901338,0.666579,-0.957108,-0.06297553,0.9038203,0.9612646,-0.7236664,-0.09340203,-0.1572696,0.2564194,0.7840743,-0.4810022,0.5441928,0.6541796,-0.4716657,-0.2657975,0.6728783,-0.002189517,0.4213054,-0.1690656,0.4556317,0.6355557,-0.9931929,-0.6763914,-0.7420607,0.1432697,-0.4594206,0.602102,-0.1535465,0.722177,-0.8270576,0.6579833,-0.3329123,-0.5936301,-0.2829114,0.4103863,-0.6981218,0.8030899,-0.9187012,0.9938242,0.9151061,0.158491,0.2054247,-0.2879578,-0.3869585,0.3885181,-0.2128395,0.1488391,0.5930722,0.2869971,-0.03527367,-0.9544103,-0.8361917,0.4106882,0.002181888,0.9159517,0.2357689,0.05435717,-0.8522003,-0.3531536,-0.2467812,-0.125259,0.09004986,-0.096053,0.9462082,0.6735284,-0.796448,0.06250179,-0.6579413,-0.04754961,-0.6848328,-0.3702065,-0.2375857,0.3471076,-0.1434709,0.3751645,0.6575384,-0.6362219,-0.6428702,-0.4669281,0.2586014,0.2447695,0.8842678,-0.6943314,-0.385672,-0.8512626,-0.04094207,-0.4467584,-0.4118129,0.5981576,0.6673987,0.2243379,-0.6464262,-0.6181262,-0.2224528,-0.1255659,-0.2674829,0.5851047,-0.4580461,0.6413233,0.04259789,-0.133504,-0.00175035,0.1460174,0.321656,0.9170477,0.8657956,-0.4145466,0.5954149,0.7736449,0.5510743,0.5593774,-0.8928871,0.5557466,-0.6965804,0.03220499,-0.1482161,0.4863667,-0.3865823,0.8339801,-0.2041532,0.1421431,-0.2638475,-0.864527,-0.005275369,-0.2133907,-0.626704,-0.2315129,0.8202796,-0.441321,-0.9967844,-0.6493983,0.3388,0.3740819,0.2980831,-0.9222972,-0.1281773,0.2314426,-0.3007232,-0.1986223,-0.9924035,-0.8247352,-0.4097844,0.7944453,0.9043169,0.1041542,-0.347,0.7923076,0.2616942,0.7208467,-0.06929934,0.8933618,-0.9063356,0.8508029,0.02527368,0.4075968,-0.5960419,0.291409,0.8306236,0.2704508,0.8958466,-0.9919293,-0.9924653,0.8529119,0.4750319,0.3215563,-0.7320297,-0.4731756,-0.9233906,0.04753697,0.5380223,-0.8484085,-0.4497415,-0.2658161,-0.3183388,-0.9934993,0.5732398,-0.391179,-0.003709435,-0.0864712,-0.3362418,-0.3604938,0.5744162,0.7911985,-0.5351737,0.0351671,-0.2698473,0.9933846,0.2253581,-0.1002733,-0.9480498,-0.5019915,-0.7150795,-0.3472241,-0.7868438,0.218011,0.3313937,0.4121027,0.8454022,-0.9996569,0.7535651,-0.1043192,-0.578562,-0.2627255,-0.5398252,-0.9354491,0.9714954,-0.04996383,-0.2548488,0.1531199,0.1348418,-0.9765491,-0.03984797,0.4239051,0.04949009,0.2179259,-0.6374409,0.01187456,0.1677018,0.803359,-0.8402469,-0.3696507,-0.9146965,-0.1799041,0.5580499,-0.917233,-0.8047082,0.5126669,-0.3745531,-0.5893054,0.3282492,-0.3509172,-0.7719257,-0.4679009,0.306,-0.5237033,0.6726315,-0.7648463,0.5222135,0.694587,-0.057217,-0.9336815,-0.8532436,0.2605848,-0.6874433,-0.08078635,-0.6296587,0.7576122,0.3450396,0.2956555,-0.3489746,-0.2513295,0.08711636,0.3894329,-0.4047529,0.962914,0.02319968,0.4550416,0.6839252,-0.1014637,-0.2336673,0.9150584,-0.1570605,-0.230925,-0.9908323,-0.6652215,-0.3065614,0.3672564,-0.09996808,0.398787,-0.1929568,0.7649443,-0.3143357,0.7626979,0.08960283,-0.4010395,0.4597857,-0.928019,-0.7279453,-0.8776002,-0.263997,-0.8206322,-0.1639127,0.3103654,-0.09750426,-0.2909859,0.2637122,0.1353565,-0.9744589,-0.4983224,0.2173136,-0.7321095,0.7758386,0.916239,0.3032207,0.7903867,0.364531,0.847683,-0.1565021,0.283452,0.4808722,-0.545002,0.7957616,-0.9667799,0.8412871,-0.3641809,0.9110119,-0.2445098,-0.7426548,-0.9306455,0.5161791,0.6821277,-0.4177588,-0.3549277,0.2263788,0.8179967,0.2460376,0.2417277,0.9815028,0.9585068,-0.1346284,-0.2634789,0.359725,0.2665222,0.5260227,-0.6339371,0.7075465,0.06157076,0.651011,0.9563384,0.707952,0.6445832,0.4312079,0.03710496,-0.316986,0.403676,0.06288517,0.8610294,0.3303466,-0.7246652,-0.07027376,0.4839144,0.2270104,0.3638234,-0.6571431,-0.6716099,-0.6046991,0.2348961,0.986006,0.9668381,-0.2539853,0.9990082,-0.4747072,-0.759191,-0.02098691,-0.778008,0.6464262,-0.1058229,-0.1352853,0.3467042,-0.7698805,-0.1182991,0.6294448,-0.2885135,0.6924729,0.2445372,0.1451558,-0.1674834,0.3625801,0.06320918,-0.3035945,-0.486689,0.05588996,-0.0314461,0.1883661,-0.8340602,0.6371567,-0.5827878,0.2987561,0.4050868,0.2502918,-0.1798986,0.1605331,-0.7720838,-0.667907,0.6522105,-0.681324,0.7759929,-0.9147992,-0.4866742,0.3597152,0.3499308,-0.03972161,-0.2268873,0.00859344,-0.9528327,-0.9694932,0.7037001,0.1000057,0.2047919,0.9681726,-0.5695088,0.8814907,-0.8119996,-0.7672648,0.07529318,0.4881136,0.5607033,0.6442919,0.585717,0.9212315,-0.2482697,0.9864769,-0.5974634,0.9814637,0.7621636,0.999723,0.1791228,-0.7942665,0.2798343,0.8922479,-0.5635798,0.3742268,-0.4227322,-0.3916179,0.6726613,0.8522294,0.780411,-0.1000201,0.7121737,-0.370015,-0.120942,0.6257689,0.9433076,0.1382264,-0.9716637,0.220543,0.7794285,0.7996593,0.3431244,0.62957,0.3430274,-0.7791831,-0.4802643,-0.03400242,0.4313955,0.310132,0.2013656,-0.9269106,0.04545605,0.2535396,0.2561073,0.1611234,0.1824185,0.2420303,0.8055348,-0.2624704,0.5601387,-0.6100833,0.7648139,-0.07650936,0.7273271,-0.2581393,-0.9250774,-0.9307754,-0.151245,-0.9692407,-0.8876758,0.02906001,0.9551554,-0.346517,-0.26658,-0.8519149,-0.9118752,-0.7575014,-0.2729937,0.02211177,0.7575679,-0.5929222,0.09692347,0.3436558,0.379797,-0.7081704,0.4712064,0.8104231,-0.5696411,0.1949691,-0.7853835,-0.3169202,0.3272967,0.6008487,0.8369689,-0.6796496,0.5519595,-0.2566434,-0.1513499,-0.2003826,0.2729783,-0.704073,0.8495536,0.1918103,-0.1029831,-0.4007603,0.3077281,0.7256637,-0.5979409,-0.8044429,0.9042983,-0.5263097,0.6731703,-0.4273099,-0.04686868,0.9195604,0.9119318,-0.1679467,0.9012852,0.03686488,-0.880178,0.05817068,-0.3412706,-0.561903,-0.7237251,-0.5851879,0.456666,-0.05977285,0.3049216,0.9871666,-0.2097803,-0.7412438,0.3592906,0.9711614,0.1900307,0.4374356,-0.04161298,0.1200734,0.9874556,-0.2658178,-0.2794482,0.7551997,-0.9327538,-0.3776761,-0.9114065,-0.2947105,-0.7720447,-0.148491,-0.4652249,0.6885586,0.8865952,0.5539308,-0.168754,0.5150638,0.2124163,-0.9399934,-0.6432419,0.5639246,-0.5421374,-0.733377,-0.8527579,0.03953111,-0.6043034,0.8138025,-0.925226,-0.3154229,-0.7772357,0.5106165,-0.9852822,-0.2510775,-0.4441398,0.6194251,-0.8227365,0.2370399,-0.9423213,0.4547219,-0.8390131,-0.05265033,-0.976413,0.2853699,0.2361306,-0.7489023,-0.1631202,-0.8370578,0.06729996,-0.3103927,-0.765672,-0.7990348,0.2284321,-0.2231609,0.9285142,0.4089756,0.1418754,0.3119676,-0.1920849,-0.210765,0.3685329,0.7521493,0.3296554,0.8693559,-0.2339622,-0.8371069,0.4679401,0.7349291,-0.4125775,-0.7860479,0.8722103,-0.2981449,-0.2712289,0.1278707,-0.3002895,0.9589078,-0.4838129,-0.6508596,0.4307907,0.4100835,-0.8283257,0.4280248,0.4161143,-0.1207272,-0.3842021,-0.4456583,0.1391836,-0.4274627,-0.3829855,0.5355108,-0.05885327,0.6342585,-0.8988273,0.8599439,-0.793601,-0.1565615,0.0811559,0.8209476,-0.7162249,-0.5454605,-0.933773,0.8067062,-0.8713787,-0.5630109,0.3773978,0.5074368,-0.7780242,-0.04059923,0.9361644,0.7593012,-0.1974133,0.4484868,-0.9449992,-0.08298337,-0.5924075,-0.9562211,0.02285159,0.294323,-0.1316642,-0.2889684,0.3933737,-0.8207424,0.5276723,-0.3563191,0.2951944,0.8659132,0.1700925,-0.3289837,-0.6426129,-0.2191166,0.9695165,-0.7308633,-0.5788925,-0.2021221,-0.7113922,0.1218911,0.8486085,0.7198484,-0.48657,-0.2164174,-0.09832942,-0.1926824,0.8591986,0.4200811,-0.1464931,-0.6807675,0.7005515,-0.8175626,0.9333394,0.9354126,0.9522049,0.1291522,-0.953486,-0.5342216,-0.7475376,0.9491327,-0.738956,-0.09319484,-0.05957592,-0.9961166,0.4558225,0.4616082,-0.8571036,-0.1256069,0.1703707,0.8529136,0.2849507,0.5650952,-0.8049045,-0.9033661,0.463372,-0.999279,0.3839898,-0.8067756,0.8437791,-0.2373782,-0.5966969,-0.5289319,0.07039988,-0.9473925,0.08073342,-0.7969921,0.02778542,-0.7499347,-0.3001019,0.1711808,0.04963052,-0.5988748,0.563118,-0.3671454,-0.5208697,0.7130079,-0.1425561,-0.1909605,0.8777363,-0.7934041,-0.5770597,-0.2315592,0.3467817,0.4326365,-0.5295579,0.9055905,0.06760299,0.2755291,-0.4041129,0.4146721,-0.4174308,-0.4589983,0.2512662,0.01561892,0.9972882,-0.9108822,-0.7696862,0.2154945,0.8736644,0.9795046,-0.7217674,0.5753934,-0.3986753,0.4100082,0.2041398,-0.886348,-0.895328,-0.6445632,-0.195942,-0.8113015,0.4559722,0.354152,0.7053118,-0.3413197,-0.538269,-0.03484285,-0.7168937,-0.1837345,0.2780681,0.7816639,-0.8952651,0.1537651,0.7491364,-0.3278555,-0.9627874,-0.3122443,-0.8624187,0.5405452,0.8276391,0.2326976,0.5596139,-0.3876039,0.4628959,-0.5311067,0.696147,-0.6335623,-0.8872111,0.7955084,-0.841176,0.7726877,0.867363,-0.4914292,-0.2889916,-0.05122411,-0.355817,0.2423118,0.7576008,0.5994551,-0.3314413,0.2865858,-0.9135578,-0.6709502,-0.0475384,0.8758941,0.7490904,0.1596876,-0.635994,0.3887956,-0.7081292,0.2588799,0.7736843,0.7346897,-0.4247607,-0.7823091,0.2481228,-0.1170629,0.4959533,0.4080255,0.5363364,-0.02739561,-0.8871744,0.7225585,0.7695279,0.1011394,-0.1507436,-0.8237331,-0.08617651,0.02384317,0.5161476,0.4180067,-0.1046973,0.4699385,-0.323167,0.8223972,-0.8091218,0.07378495,-0.7326677,0.9669194,-0.4650346,-0.9805946,-0.1690336,0.1899661,-0.8166537,0.4762788,0.9760778,0.194321,-0.584044,-0.8569546,0.01733601,-0.3626248,-0.42777,0.825773,-0.9034779,-0.02329648,-0.3275732,-0.112444,-0.03499758,0.9071114,-0.6843855,0.9778521,-0.3725749,-0.862447,0.2852178,-0.1092049,0.421783,0.5628929,0.6175835,0.8669178,-0.8625817,-0.4155766,0.224558,0.5333581,-0.5385973,-0.0871073,0.2623909,-0.5114946,0.3534033,0.5952351,-0.8305421,-0.3443223,-0.8513043,0.03926885,0.5969622,-0.2785162,0.3717003,0.6250288,-0.9159951,0.8490314,0.179371,-0.5429215,0.5391438,0.9084909,0.7696393,0.7604361,-0.9228346,0.3864257,0.6507406,-0.6566257,0.8460548,0.8048065,0.8392673,0.3399978,-0.7866862,0.3790653,0.05184305,-0.4932925,0.9234867,0.2624493,0.9605463,0.7029417,-0.485191,0.7816598,-0.6485748,-0.5866911,-0.3023928,-0.4630407,0.5834973,-0.08476555,0.3658521,0.1587459,-0.07137525,0.6605985,-0.5426369,0.3955863,-0.9789438,-0.02109087,-0.3006421,-0.2107476,0.7329049,0.6682911,0.6568072,0.02925622,0.6278222,0.8762009,-0.2009474,-0.0004466772,-0.4034051,-0.7084007,0.4496775,-0.6307199,-0.08301961,0.7230434,-0.62656,0.5237789,0.01639879,0.3144979,0.7097878,0.9546914,0.5756171,0.6313174,0.5989397,-0.9576328,0.8590767,-0.03489625,-0.6269262,-0.1895715,-0.751333,0.07243955,-0.2212373,-0.4116613,0.4885826,-0.375492,0.2391366,0.07499063,0.4301782,0.1784102,0.3915887,-0.5418272,0.9695992,-0.5791912,0.8141754,0.7957416,-0.7546177,0.4680426,0.7543368,0.2859032,0.03160036,-0.2533878,-0.5745702,0.995074,0.8865364,-0.970437,-0.9075243,-0.0376097,0.003639817,0.2734733,0.262006,0.7759542,0.2203549,-0.9000034,-0.1100122,0.5336699,0.06143749,-0.679873,0.4448895,0.6825466,-0.8863878,0.7565465,0.9384291,-0.2574192,0.766875,-0.6752775,-0.420024,0.4857368,0.7123027,-0.09311521,0.3477297,-0.1425821,-0.7351921,-0.03597152,0.9960783,-0.4642528,0.9188221,-0.4927624,0.4563272,-0.1414763,-0.009118199,-0.7385728,0.01204646,-0.7123666,0.464751,0.8378556,0.3022153,-0.3628012,0.7751799,-0.3686138,0.706557,-0.3899454,0.3102453,0.1227728,-0.6622775,-0.6109841,-0.3784899,0.2746489,-0.3113748,-0.9949372,0.07998669,-0.975379,0.379297,0.289525,-0.9975929,0.3445818,0.3912501,-0.6095169,0.9122694,0.5828199,0.330719,-0.1210264,-0.9498696,-0.8563657,-0.05626929,0.1993481,-0.3142539,-0.02117193,-0.03996146,-0.3276345,-0.385955,-0.2486354,-0.6258607,-0.6679053,0.5127165,0.7439325,0.3401098,-0.6427047,-0.2391509,-0.8739903,-0.05594766,0.002922654,-0.8012171,-0.9232118,-0.9042056,-0.09010947,0.589066,0.5447774,0.2204429,0.6871083,-0.01246917,0.8106959,0.5631063,-0.3366412,0.7008815,0.2077497,-0.554471,0.8395894,0.7688189,-0.5188417,-0.6459944,-0.5609138,0.9357316,-0.8740594,-0.464075,0.8967533,-0.5957427,0.02935421,-0.9577572,-0.800997,-0.04168975,0.06231034,0.1051666,-0.3312339,0.7293708,0.3955653,0.3907232,0.5875041,0.878036,-0.8491657,0.7367024,0.7243712,0.4530046,-0.8229828,-0.1456085,0.8942101,0.09803307,-0.4185163,-0.3906032,0.7643812,-0.6840637,0.1832849,0.927711,-0.8914604,-0.17357,0.786015,-0.03945863,0.4531901,0.1279379,-0.415723,-0.8377755,0.8468869,-0.01114666,-0.1031741,-0.5071673,-0.5789144,0.1980656,0.2277623,-0.9004941,0.07392585,-0.2198328,-0.1572207,0.3085122,-0.8189611,0.8460538,-0.8402445,0.09240496,-0.7035763,0.8744292,-0.4784502,-0.3169063,-0.3630315,-0.3540233,0.5015259,0.05086076,-0.2006623,-0.7484319,-0.330434,0.2840266,0.6512322,0.2652369,-0.936228,0.577719,-0.311432,0.2645798,-0.5703447,-0.9534349,-0.5829818,-0.9206963,0.6523614,0.1734899,0.3877256,-0.8550832,0.1039215,-0.5774007,-0.7197561,-0.09965551,-0.9542661,-0.3849381,-0.2980222,0.4119244,-0.6307697,-0.2217683,-0.3853101,0.1653796,0.2027024,0.1260375,0.7794731,-0.7549148,-0.08842504,-0.4534165,0.9208286,0.4133244,-0.6906848,-0.2408301,-0.591177,-0.3477362,-0.6613286,-0.3783385,-0.3053788,0.4073794,-0.7106774,0.567271,0.6849656,-0.08399928,0.6595342,-0.2155684,0.4668672,-0.07568824,-0.1215993,0.5249949,-0.1476976,-0.4170099,0.6303365,-0.8378549,-0.3700572,-0.7820332,-0.9440756,-0.7762134,0.1160318,0.5824394,0.4415104,-0.1923391,0.1082181,0.6811233,-0.6291251,-0.9054718,0.9852014,0.6556234,-0.7428534,0.3672101,0.9499474,0.8461957,0.0213896,-0.9389031,0.3355658,-0.7596884,0.5877988,0.823,0.8376541,0.3716249,0.6438596,-0.8961661,0.9117689,-0.1789855,0.8921614,0.2844224,0.7744746,-0.09503949,0.1029409,-0.5983715,0.6589532,0.5522268,0.04796946,0.02142274,0.6429062,-0.08012092,-0.3222076,0.6782939,-0.03998506,0.9157071,-0.971931,-0.9561143,-0.06065285,-0.2932814,0.03339279,-0.2385184,-0.9297044,-0.2238911,0.7123694,-0.389727,-0.6192372,0.2526934,0.1059283,-0.5838966,0.05122221,-0.4331449,0.989594,-0.4625033,0.6500201,-0.3732885,0.4622242,0.2207619,-0.91574,0.8114028,-0.2075697,0.2725704,0.7040272,0.9024961,0.4304821,-0.6017296,0.5281808,0.399693,-0.9520864,-0.6942623,0.4205656,0.7906368,-0.723906,-0.9288332,-0.8248708,-0.4870023,-0.8190513,-0.4989799,-0.04597247,0.2339042,-0.3734299,0.4002833,-0.7102208,0.8310096,-0.9278367,0.5053711,-0.07145274,0.8555825,0.4241412,-0.1673173,-0.6176813,-0.199684,-0.3923711,0.5503545,0.8157685,-0.03127348,0.750262,-0.4987174,-0.8185556,0.2304777,-0.8859355,0.7382996,0.2097691,0.5590498,-0.1746782,0.2437705,-0.3123249,-0.363227,0.4795156,0.004757762,-0.2415427,-0.2502645,-0.4512707,-0.1719731,-0.427868,0.6449885,-0.2408904,0.8921843,0.1661438,-0.2448565,0.09112966,0.4640286,0.2268132,0.6634438,0.7869098,-0.4833361,-0.9262884,-0.5783999,0.5619273,-0.4073652,-0.6651747,0.8305967,-0.4149159,-0.1637877,-0.5672562,0.4344525,-0.5446064,-0.4901019,-0.45285,0.8358932,0.8778789,-0.2434722,0.4365463,0.854794,-0.8943908,-0.3231479,-0.8730893,0.6866622,-0.01109493,0.9762104,-0.8287766,0.3801448,0.8851941,0.8542931,0.3356657,-0.7177944,-0.3931888,-0.7406394,-0.4811972,0.7590344,-0.661139,-0.1856385,0.9334781,0.3490417,-0.934546,-0.7955723,0.9285457,0.8649271,-0.1746384,0.2612052,0.1955718,0.7461123,-0.6646757,0.03241241,0.8750172,0.427573,-0.4734327,-0.07451522,-0.891084,-0.4317981,-0.5709219,0.649662,-0.6654973,0.589601,-0.7992716,-0.9845636,0.2145406,0.6670513,-0.8613718,0.5082595,-0.8132911,-0.9607232,-0.2968954,0.6201549,2.658367E-05,0.07834828,-0.4848627,-0.04974639,-0.85308,-0.680737,-0.329311,0.2679691,0.9121301,-0.2720608,0.9404702,-0.5574017,-0.3767027,0.735291,0.2033678,-0.6402438,0.3237355,-0.7081568,0.4171762,0.6947782,-0.2281626,0.6226358,0.3624346,0.3591321,-0.05755889,0.8938463,-0.4635361,0.3082104,-0.7590146,0.8147953,-0.5059028,-0.3187121,0.7092879,0.5119319,0.7486391,0.8411169,0.05051386,0.9446583,-0.8573844,-0.05543602,-0.7788179,0.1753744,-0.3674358,-0.3151923,-0.9051077,-0.4834203,-0.9231982,0.4613185,0.2520669,-0.7988601,-0.3750981,-0.7422705,0.6089051,0.478318,0.5168126,-0.8720119,-0.05433476,-0.6136224,0.6481845,-0.3687941,0.02893198,0.1950763,-0.1099132,-0.1181301,-0.5841806,-0.2531565,0.2773561,-0.6878929,-0.1662959,-0.748349,-0.3896629,0.7613168,0.8963175,-0.6721447,-0.1291341,0.05374849,-0.1293248,0.2520571,0.1630112,-0.3164908,-0.2137026,-0.5672739,0.2242826,0.2543757,-0.5206192,0.3947663,0.3457954,-0.5232563,0.1586131,0.4355574,-0.1164807,0.6371496,0.2525744,-0.6584313,0.1956123,0.913326,-0.5353448,-0.06055963,0.8468399,0.560195,-0.2214056,-0.9875085,0.5312376,-0.7526414,0.905895,-0.9448674,-0.849575,-0.569629,0.4787302,0.1066083,-0.2668103,-0.4978889,0.6609569,0.2980669,0.36131,-0.6370482,-0.09273732,0.9201896,-0.221619,0.6003494,-0.8292706,-0.8546193,0.4578333,-0.7447577,-0.7811968,0.2958775,-0.5221529,0.9186578,-0.4040016,-0.9955089,-0.4288036,0.7458465,-0.1305784,-0.60096,-0.6159348,0.189082,-0.4382182,-0.5728021,-0.6431084,0.5719948,-0.6851914,0.7254658,0.1093775,-0.6045663,-0.2060043,-0.132579,-0.4132861,-0.8208075,-0.2030159,-0.3803633,-0.5131629,0.5825465,0.3929892,-0.3924371,0.479907,0.004245639,0.8484626,0.9991632,0.2091304,-0.1758708,0.317122,-0.1554967,-0.3504943,0.8079922,-0.6148322,-0.1913642,0.320164,-0.5131609,-0.9993587,-0.4700762,0.7692823,-0.6377151,-0.2041281,-0.3692306,-0.9746866,0.6199956,0.9074187,0.1440061,-0.5747697,-0.6400886,0.2790647,0.7603166,-0.1019763,0.8670795,0.1811005,-0.380232,-0.3678194,-0.01924431,-0.1399721,-0.7972703,0.09743321,-0.1338252,-0.8340604,-0.9293232,0.8637075,-0.8092678,0.8716443,0.5889246,0.3358762,0.5356395,-0.5997972,-0.6662998,-0.2510039,0.2460219,-0.6532679,0.8513782,0.1195053,-0.4421819,-0.9076107,-0.7523909,-0.7371812,-0.4515928,0.5859447,0.6279628,-0.4406842,-0.6341696,-0.6260023,-0.1256725,-0.7033527,0.6548991,0.02809823,0.475198,0.2777085,0.8029807,0.3670011,-0.2313572,-0.1194295,-0.8088818,0.9446173,0.02176178,-0.6094639,-0.2221726,0.3159473,0.5623667,-0.3407196,-0.1321985,-0.4782037,0.01690733,0.5106609,0.986728,-0.1225058,0.7792881,0.2448481,-0.3166381,-0.810689,-0.1702996,0.1256815,0.5621691,-0.8756196,-0.8840141,0.6754396,-0.5080268,0.2648387,-0.3048142,-0.706306,-0.8491368,-0.05585134,0.9945068,0.02662241,-0.0879916,0.9546993,-0.2651633,0.22954,-0.6266174,-0.6934381,-0.412238,0.07361972,-0.7823131,-0.7940342,-0.1749524,-0.7121382,-0.994884,0.7852194,-0.5404835,-0.05672729,-0.8591907,0.05456412,0.5799575,-0.8249311,-0.03768241,0.3376341,0.1521238,-0.0231868,0.9290509,-0.1136242,-0.2181166,0.6769273,-0.6106796,-0.9820578,0.6146457,-0.7381732,0.7255809,0.2463137,-0.4834765,-0.204096,0.6303034,0.790478,-0.4684335,-0.8921196,0.2800317,-0.7932694,-0.7223799,-0.7962155,-0.3427378,-0.6184676,-0.09059322,-0.148362,0.5253146,-0.303013,-0.9487062,-0.8984118,0.6577277,-0.9519761,-0.3179067,0.2852986,-0.5884447,-0.08917582,-0.2152985,0.3923864,0.9455943,-0.3099884,-0.05354297,-0.633774,0.9902143,-0.7070932,0.3063269,0.5862699,-0.1549209,0.5801597,-0.1797391,-0.0205549,-0.2572533,0.6009007,0.3106301,0.9741223,0.7873356,-0.02436268,-0.2386526,0.4826679,0.6607659,0.6583924,-0.8012161,0.1409296,-0.3583359,-0.4202942,-0.04074538,-0.6424036,-0.126038,0.05671322,0.3074071,0.07326066,-0.5633349,0.7816372,0.6322281,-0.2984496,0.03927648,-0.8525946,-0.3807727,0.6542678,0.7586265,-0.7165079,-0.2668163,-0.8270657,-0.3100935,-0.4944478,-0.4886333,0.8107059,-0.2079617,0.1829504,0.9799392,-0.6643672,0.7724073,-0.889641,-0.102307,0.4498494,-0.7916162,0.8628027,-0.4358732,0.4373996,0.04410207,0.9925878,0.6307497,-0.3545691,0.9350903,0.3437245,0.768966,0.7557294,-0.9687245,0.7884388,0.8281224,0.9812353,-0.1792475,0.9002264,-0.6669815,-0.2830099,-0.5741992,0.1597227,-0.5462232,-0.7883866,-0.01854527,0.2633178,-0.9695179,0.7059205,0.4280763,0.009787917,0.2585685,-0.9004941,-0.5145004,0.8674157,0.5812292,0.3028605,-0.1001638,0.4219413,-0.6860943,-0.5674822,0.6400967,0.4064565,0.3121688,-0.2683357,-0.7611017,0.1734926,-0.4386505,-0.9416885,-0.2209965,0.5746448,0.1992251,0.6044083,-0.9595361,-0.01162398,-0.007642865,0.01176798,-0.1596447,0.1055728,0.5835969,-0.02893364,-0.04524171,0.4242649,0.13894,-0.4239644,0.4789047,-0.2214938,0.7884166,-0.79989,-0.6411827,-0.00287807,0.2993183,0.4890554,-0.2979237,-0.7528164,0.3246639,-0.2286783,0.9125071,0.6549745,-0.9205403,-0.2629257,0.3753488,0.4771616,-0.3779699,-0.5640008,-0.5520101,0.9551363,0.1419743,-0.7016518,0.555604,0.3489771,-0.3611194,0.3613689,0.3706293,0.3531306,0.7036815,0.5734096,-0.1872317,-0.6232727,0.4739242,0.4140127,0.8961706,0.5056636,-0.3303088,0.7491484,-0.816309,0.7087958,-0.4999717,-0.6514463,-0.2054156,0.247722,0.8633857,0.8168542,0.7917209,-0.7494633,0.2040907,0.4398685,0.9570847,0.1453201,0.3666,0.1055645,0.0331291,0.2744043,0.3427989,-0.8674319,0.7824609,-0.2187332,0.1469759,0.1352118,0.7408345,0.9278052,-0.4850928,0.3798788,-0.8964274,-0.759094,0.9366243,0.5996284,0.3392992,-0.9133692,-0.4196213,0.02018178,-0.9915402,0.8316183,-0.7657866,0.01452982,0.6952155,-0.2630557,-0.6969459,0.2787421,-0.4938537,0.3202827,0.4975357,0.7450252,0.4885504,0.648829,0.8884859,0.04874432,-0.3362838,0.2178208,-0.6375163,-0.5452032,-0.8823621,-0.2652243,0.4889317,-0.9336309,-0.7026527,-0.9371953,0.7648919,-0.1316189,-0.1910521,-0.7724252,-0.3985635,0.1511768,-0.6153872,-0.3320509,0.4294524,0.8670723,0.06153858,0.919955,-0.6169465,-0.420138,-0.01909983,-0.01444733,-0.8109047,-0.3596257,0.1824933,0.9101579,-0.5069354,-0.6608877,-0.1970052,0.2641382,-0.2046987,-0.4328064,-0.4605204,0.4615047,0.3102837,-0.8216496,-0.4161555,0.5406013,0.05786955,0.6523743,-0.571841,0.5693603,0.8145087,0.2262512,-0.545253,-0.3491148,0.9021189,0.02223694,0.2139155,-0.6289964,-0.5614779,0.1399163,0.372736,-0.949657,0.503926,-0.4803871,-0.3954734,0.8173089,0.5154769,-0.5121922,0.2772892,-0.01344097,-0.7993338,0.1222667,0.5560069,0.3714824,0.3063567,0.8385911,0.7033656,0.6381898,-0.6470604,-0.893925,0.3865461,-0.7184415,0.3709712,0.09114039,0.7584267,0.8953929,-0.122151,0.5853021,0.4162257,-0.2258779,0.6960139,0.7206166,-0.906491,0.9474256,-0.4618396,-0.7754171,-0.364117,0.3757746,0.8135428,0.3459232,0.1371335,0.1952347,0.7220144,-0.07655513,-0.8437698,0.5146153,-0.09752047,0.5924742,0.5006852,-0.705919,-0.8925707,0.1934651,0.4386139,-0.8579559,0.07127416,0.7182763,0.5359545,0.7170372,0.1994332,0.3902535,0.3310175,0.5292766,0.5823693,-0.009263396,-0.1570286,0.6947505,-0.7473021,0.115384,-0.2148014,-0.1223992,0.2311946,-0.7660363,0.4536507,0.3552835,-0.7455931,-0.6497986,-0.1559671,-0.9266298,-0.1561922,0.963738,0.07416523,0.6993074,-0.6264927,-0.9630103,0.4333129,-0.4047996,-0.929553,0.3436794,0.4517624,-0.08717048,0.1927935,-0.4274164,-0.01352227,-0.5740042,0.7613862,0.5585208,-0.8798983,-0.3238527,0.6513968,-0.5553908,0.7228143,-0.2743038,0.7715645,-0.1641406,-0.2901846,-0.3391532,-0.07550704,0.161759,-0.6167707,0.5815268,0.582649,-0.3194052,0.3453517,-0.04327285,0.322552,0.8284051,-0.2281913,0.95454,-0.1584543,-0.309528,-0.5023561,-0.09519684,0.2231032,0.9587264,-0.9311213,-0.9809499,-0.3271989,0.3252509,-0.2980348,-0.978101,-0.2369424,-0.4606575,0.2774236,0.4808099,-0.6261044,-0.6816561,0.6360488,0.9564393,0.9606481,0.8145757,-0.6813469,-0.2351953,-0.8952265,0.4059222,0.7849104,-0.999896,0.3668203,0.7363045,-0.2295443,-0.8596265,0.6609492,0.8233349,-0.2481424,-0.7161036,-0.921051,-0.5405116,-0.6280787,0.7866206,-0.6611803,0.6175249,-0.2927495,0.2529163,-0.04415786,0.185213,-0.4912478,-0.7635255,-0.01739299,0.0551523,0.9208338,0.8902276,-0.3921548,-0.3601574,0.9548118,-0.6229327,0.3615978,-0.101087,-0.224208,0.75723,0.8341913,-0.35594,-0.5310268,-0.1562427,0.6659222,-0.8364196,-0.8493216,-0.6729662,0.7554007,0.1745797,-0.8747356,0.04608405,-0.8866887,0.7946677,0.7935157,0.9327254,0.8691378,-0.4397134,0.06316245,0.9360452,0.256845,0.3626862,0.263829,0.1712662,0.07650125,-0.01779664,0.2095326,0.7627387,0.8749058,-0.7632518,-0.8343813,0.4062855,-0.3392252,-0.908515,0.7728305,-0.07797611,-0.4572886,0.8910689,-0.4708256,0.3663101,0.4206471,-0.0534116,-0.86127,0.04263031,0.1761955,0.1637374,-0.8956628,-0.6304858,-0.3463217,0.5981507,0.9713197,-0.431671,0.7249804,-0.3470267,0.257834,0.7741423,0.1675032,-0.8745816,0.9690239,-0.9000177,0.6118519,-0.5574203,-0.7425714,0.5195374,0.609062,0.3970482,-0.7656672,-0.3189944,0.1037976,0.2068683,-0.6827693,0.2662342,0.08898103,0.2985373,0.9487901,0.4591758,0.9205768,-0.621717,0.5218372,0.3565249,0.4195216,-0.2341872,-0.320074,0.694267,-0.4103209,0.3612916,-0.09548557,0.46822,0.921056,0.7638907,0.4797325,0.6975224,-0.890276,-0.6221006,0.3079953,0.280143,0.6890633,-0.6589394,-0.05336893,-0.669656,0.4285231,0.6988118,0.01508749,-0.7401941,0.3618555,-0.8578942,0.3456221,-0.9936812,-0.6517937,0.258718,-0.4927965,-0.00765264,0.860286,0.9462831,-0.6666324,-0.5766954,0.7015483,0.6530328,0.5320539,-0.4249316,0.3699582,0.587121,-0.9948754,0.8300018,0.04172885,-0.3772067,0.5489004,-0.3001107,0.1642386,0.913784,-0.417818,0.4223323,0.1374744,0.6467066,-0.6975777,0.1377765,-0.8712313,-0.5832326,-0.4194325,0.9310691,0.7212412,-0.6735423,0.8218973,0.3565207,0.2390248,-0.5706589,0.06148732,-0.9812763,0.2378465,-0.4682962,-0.6093724,-0.9054527,-0.6525843,0.4116733,0.2042173,0.4684961,0.1933521,-0.9794166,-0.3948768,-0.09382045,0.9378622,-0.06804216,0.418205,0.5971806,-0.5071554,0.3308659,0.3633518,-0.4621338,0.4780111,0.3232014,0.6172504,-0.2494797,-0.6375687,-0.6856849,-0.4648231,-0.4211093,-0.3008343,0.7371054,-0.5173018,0.1164542,0.149465,-0.01731765,-0.4057924,-0.8624756,-0.5367947,-0.5394869,0.9001868,0.5186059,0.4681513,-0.5910623,0.171389,0.4620786,-0.2649509,0.6175129,-0.6605477,0.7335379,-0.4955419,-0.4574374,0.4672863,0.7219169,-0.9161351,-0.1433264,-0.3045958,-0.8161423,0.7604086,-0.7086127,-0.2723304,0.8663061,0.8461509,-0.3657671,-0.6454167,0.3100789,-0.7714875,-0.9343073,0.7801037,-0.537334,0.6638954,-0.8818104,-0.7068295,0.9726501,0.3251541,0.4772446,0.9957194,-0.4431707,-0.292627,0.3551514,-0.06601775,0.5303807,0.3578146,0.04889429,0.6334062,-0.6716244,0.7020395,-0.9898148,0.958786,0.7207491,-0.9002185,-0.9699509,-0.5267603,0.1958226,0.2727065,-0.1954957,-0.5858955,0.05165088,-0.8832338,0.8694854,0.8849061,0.05740678,-0.7211089,0.8216953,0.1436197,0.6303425,-0.0770992,0.6247425,-0.9835937,0.9865997,0.9208844,-0.9762707,-0.1866363,0.5218472,0.9177709,0.4276137,0.6047368,0.7896173,0.8391254,0.203087,-0.7577126,0.172259,0.0574404,0.7561672,0.6395364,0.2774963,-0.4434,-0.1190125,-0.04946744,0.6673822,0.6992903,-0.8778491,0.6991289,0.653111,-0.05869067,-0.5862899,-0.8456368,0.8860221,0.3133705,0.5840111,-0.8485863,0.2263862,0.8405416,0.9956362,-0.6396554,0.8003292,0.4879141,0.3934441,-0.2683965,0.5843017,0.6725473,0.2574198,0.393059,-0.8823941,0.1833793,0.5134497,0.1268405,0.264396,0.2344173,-0.6553192,0.9376576,0.2363271,0.7628663,0.9082172,0.8656895,-0.8905294,-0.3303088,-0.3159598,-0.7058675,-0.2529076,0.8604076,-0.8777418,0.2751184,0.9778273,0.3939235,0.8487897,-0.4139284,0.4155879,0.9622912,-0.5914235,0.6724193,0.7405467,0.2004749,-0.2241892,-0.9009969,0.5007112,0.4231143,-0.2071902,0.246169,-0.3304271,-0.9867222,-0.3743905,-0.01047218,0.6053579,-0.8603785,0.9214737,-0.6116076,-0.5073795,-0.3142384,0.4885798,-0.1448344,-0.7211213,0.08881104,-0.02992523,-0.146597,-0.1993843,-0.6939499,0.05730617,0.5904374,-0.2893375,-0.9164464,0.4103632,0.6864223,0.2512267,-0.6391478,0.5017533,0.4343119,-0.5642579,0.001437068,0.1062874,-0.05367506,0.7567022,-0.7380478,-0.6813102,-0.3687302,-0.5625896,-0.4821004,-0.4038218,0.6178658,0.5907216,0.5211096,0.8465843,-0.6335523,-0.4979583,-0.9135032,-0.02653396,0.4403303,-0.8964024,-0.5513086,0.9770093,-0.5092676,0.8986256,-0.1966954,-0.05146205,0.6526723,0.4771454,0.1672989,-0.8621817,-0.2051357,-0.1839727,-0.7762775,-0.9189625,0.8171575,-0.6514387,-0.9877911,-0.4404887,0.4754815,0.4603386,0.3938341,-0.9158497,-0.3597068,-0.02180016,0.4965088,-0.1487783,0.4841962,0.6721718,0.1456977,0.2976997,0.1611851,0.4210315,-0.7645917,-0.5984747,-0.59552,0.1054047,0.771035,0.4964616,-0.2005783,-0.9805534,-0.1511878,-0.7922399,-0.2910882,-0.6642938,0.02386892,0.6572602,-0.6491091,0.1446153,0.1444932,0.9252136,0.2826791,0.4147925,0.3750207,0.6626394,-0.2772249,-0.860476,0.3287179,-0.715802,0.3634748,0.03749406,0.01213777,-0.5773871,0.2706614,0.97998,0.3818262,0.6051431,-0.2398006,0.04258549,-0.222237,0.5641644,-0.3517963,0.008928418,0.7446175,-0.2312139,-0.128745,-0.9556544,0.5908682,0.6261547,-0.7299562,-0.1903147,0.1670865,0.5476298,0.8464911,-0.7839656,0.4593713,0.2741404,-0.4384855,0.1430761,0.2272621,0.02360356,0.7250831,-0.1006907,-0.404162,-0.9575396,-0.2569889,0.8990581,-0.4341437,-0.4178034,0.1855673,0.5642118,0.8730097,0.7819495,0.2657781,0.1225251,0.1188451,0.8920636,0.4040878,0.5776069,-0.1609854,0.4522452,-0.2795316,-0.7241974,-0.6643531,-0.9687605,0.281338,0.7972555,-0.04202354,-0.4847852,-0.6213787,-0.161044,0.7004144,-0.64253,0.5573602,0.6489582,0.8995268,0.1283594,0.1559902,-0.04080021,0.8102567,-0.6432281,-0.4169134,0.4788108,0.5342896,0.8368132,0.1594073,-0.3863035,-0.2983238,0.4169102,-0.7258792,0.5345814,0.3148339,0.5084269,0.8573806,-0.983217,-0.2943982,0.6573632,0.965785,0.736233,-0.3377174,-0.1970724,0.788496,-0.06391513,0.3369725,-0.8824768,0.8681409,-0.4287301,0.8972914,-0.1599985,0.7291961,0.2735729,0.1115836,0.5461807,0.4108856,-0.841079,0.2359368,-0.9863713,0.1032728,0.04681265,-0.5656829,0.1983801,-0.1464163,-0.3026942,0.3341017,-0.4840645,-0.1016194,0.151358,-0.1192232,-0.6969132,-0.6679294,-0.09207189,0.1821779,-0.2217025,-0.7402086,-0.4572839,0.2176214,0.8658419,-0.3650154,0.4299479,0.7164004,0.5002348,0.3067453,-0.06534469,-0.2774626,-0.006674647,-0.6747277,-0.9529946,0.5163879,-0.6705394,0.9184718,-0.9870348,0.09640896,0.09409153,0.1254984,0.6035111,-0.9648752,-0.2881912,-0.4329857,0.06501162,-0.5152297,0.4205415,0.5853744,0.1087955,-0.01479661,0.3256528,0.247923,0.1152099,0.812552,0.08336484,-0.3203956,0.5057335,-0.6187351,-0.289004,-0.7165599,0.3290324,0.936759,-0.4453396,0.01181328,0.9380934,0.7945368,0.7594435,-0.7109575,0.8141005,-0.9690037,-0.4749457,0.788341,-0.7654634,0.7170534,-0.4315208,0.7449009,0.4690731,-0.7010629,0.2245549,0.7854838,-0.7436268,0.8048246,-0.4041415,0.2154676,-0.3406798,-0.5439675,-0.1806473,0.4913344,-0.5696683,0.6616247,-0.5590091,-0.06034625,0.1096758,0.09488022,0.179638,0.4165146,0.5102811,0.1767188,-0.1946875,0.4350722,-0.9791896,0.7477231,0.4815457,-0.3933924,0.2347265,-0.7201121,0.9660645,0.3113551,-0.272112,0.9574766,0.2187899,0.1510967,-0.9986141,-0.5495591,0.1204866,0.03241742,0.5005887,0.8556056,0.5067005,0.6201172,-0.731756,-0.2277156,-0.3092936,0.09248793,-0.5350633,-0.5136271,-0.1663388,-0.1291398,0.5750301,0.758697,0.7351482,0.1963578,0.7194352,0.716944,0.5649922,0.1777569,-0.2721037,-0.5418582,-0.009099364,0.5958073,-0.814167,-0.09915769,0.9755456,0.5006361,-0.1200513,0.5124259,-0.2653676,0.2729676,-0.6144247,0.06112444,-0.5109363,0.5133598,0.1429292,-0.383823,-0.7521257,0.9012077,0.1793708,0.3495274,0.5792837,0.2607613,-0.3482591,0.1000243,-0.1355966,0.7004445,0.2587013,-0.1337184,-0.7804849,-0.8322222,-0.4765891,-0.1113065,-0.4485685,0.3042107,0.05882967,0.4898398,-0.4408146,-0.3936659,-0.4336184,-0.332414,-0.1400546,-0.2982363,0.754282,0.9111705,0.8272564,0.8341501,-0.1673378,0.8601043,-0.1298259,-0.9752324,-0.2496413,0.5108511,-0.6273353,-0.6135831,0.9641953,-0.6844716,-0.1679059,0.3417177,0.7620118,0.2658489,-0.4092499,0.6284218,-0.8540046,0.08224165,0.8924453,-0.05547965,0.4366131,-0.1729826,-0.50875,0.01656306,-0.8968775,-0.9548686,-0.4023827,-0.3294109,0.9496086,-0.933537,-0.4719709,0.8151393,-0.02924335,-0.5389447,-0.74389,0.2433206,0.2664487,0.3982346,